digraph Tree {
node [shape=box] ;
0 [label="X[12] <= 71.5\ngini = 0.347\nsamples = 106644\nvalue = [82798, 23846]"] ;
1 [label="X[12] <= 56.5\ngini = 0.249\nsamples = 89014\nvalue = [76057, 12957]"] ;
0 -> 1 [labeldistance=2.5, labelangle=45, headlabel="True"] ;
2 [label="X[6] <= 55.0\ngini = 0.179\nsamples = 63662\nvalue = [57329, 6333]"] ;
1 -> 2 ;
3 [label="X[12] <= 0.5\ngini = 0.148\nsamples = 56464\nvalue = [51924, 4540]"] ;
2 -> 3 ;
4 [label="X[2] <= 2.25\ngini = 0.369\nsamples = 2582\nvalue = [1953, 629]"] ;
3 -> 4 ;
5 [label="X[15] <= 2.5\ngini = 0.281\nsamples = 2091\nvalue = [1738, 353]"] ;
4 -> 5 ;
6 [label="X[17] <= 15.85\ngini = 0.21\nsamples = 1315\nvalue = [1158, 157]"] ;
5 -> 6 ;
7 [label="X[6] <= 42.0\ngini = 0.318\nsamples = 586\nvalue = [470, 116]"] ;
6 -> 7 ;
8 [label="X[13] <= 1020.25\ngini = 0.285\nsamples = 523\nvalue = [433, 90]"] ;
7 -> 8 ;
9 [label="X[14] <= 500.5\ngini = 0.346\nsamples = 337\nvalue = [262, 75]"] ;
8 -> 9 ;
10 [label="X[17] <= 0.25\ngini = 0.283\nsamples = 275\nvalue = [228, 47]"] ;
9 -> 10 ;
11 [label="X[10] <= 3.0\ngini = 0.38\nsamples = 137\nvalue = [102, 35]"] ;
10 -> 11 ;
12 [label="X[1] <= 3.85\ngini = 0.355\nsamples = 130\nvalue = [100, 30]"] ;
11 -> 12 ;
13 [label="X[6] <= 13.0\ngini = 0.219\nsamples = 48\nvalue = [42, 6]"] ;
12 -> 13 ;
14 [label="X[0] <= 3.4\ngini = 0.24\nsamples = 43\nvalue = [37, 6]"] ;
13 -> 14 ;
15 [label="X[4] <= 8.4\ngini = 0.255\nsamples = 40\nvalue = [34, 6]"] ;
14 -> 15 ;
16 [label="X[4] <= 1.8\ngini = 0.266\nsamples = 38\nvalue = [32, 6]"] ;
15 -> 16 ;
17 [label="X[16] <= 0.5\ngini = 0.239\nsamples = 36\nvalue = [31, 5]"] ;
16 -> 17 ;
18 [label="gini = 0.245\nsamples = 35\nvalue = [30, 5]"] ;
17 -> 18 ;
19 [label="gini = 0.0\nsamples = 1\nvalue = [1, 0]"] ;
17 -> 19 ;
20 [label="gini = 0.5\nsamples = 2\nvalue = [1, 1]"] ;
16 -> 20 ;
21 [label="gini = 0.0\nsamples = 2\nvalue = [2, 0]"] ;
15 -> 21 ;
22 [label="gini = 0.0\nsamples = 3\nvalue = [3, 0]"] ;
14 -> 22 ;
23 [label="gini = 0.0\nsamples = 5\nvalue = [5, 0]"] ;
13 -> 23 ;
24 [label="X[1] <= 6.3\ngini = 0.414\nsamples = 82\nvalue = [58, 24]"] ;
12 -> 24 ;
25 [label="gini = 0.0\nsamples = 2\nvalue = [0, 2]"] ;
24 -> 25 ;
26 [label="X[5] <= 202.5\ngini = 0.399\nsamples = 80\nvalue = [58, 22]"] ;
24 -> 26 ;
27 [label="X[1] <= 26.9\ngini = 0.418\nsamples = 74\nvalue = [52, 22]"] ;
26 -> 27 ;
28 [label="X[1] <= 19.05\ngini = 0.47\nsamples = 45\nvalue = [28, 17]"] ;
27 -> 28 ;
29 [label="X[2] <= 0.15\ngini = 0.337\nsamples = 14\nvalue = [11, 3]"] ;
28 -> 29 ;
30 [label="X[6] <= 36.0\ngini = 0.165\nsamples = 11\nvalue = [10, 1]"] ;
29 -> 30 ;
31 [label="gini = 0.0\nsamples = 10\nvalue = [10, 0]"] ;
30 -> 31 ;
32 [label="gini = 0.0\nsamples = 1\nvalue = [0, 1]"] ;
30 -> 32 ;
33 [label="X[19] <= 0.5\ngini = 0.444\nsamples = 3\nvalue = [1, 2]"] ;
29 -> 33 ;
34 [label="gini = 0.0\nsamples = 2\nvalue = [0, 2]"] ;
33 -> 34 ;
35 [label="gini = 0.0\nsamples = 1\nvalue = [1, 0]"] ;
33 -> 35 ;
36 [label="X[2] <= 0.5\ngini = 0.495\nsamples = 31\nvalue = [17, 14]"] ;
28 -> 36 ;
37 [label="X[0] <= 4.0\ngini = 0.499\nsamples = 29\nvalue = [15, 14]"] ;
36 -> 37 ;
38 [label="X[1] <= 24.95\ngini = 0.497\nsamples = 24\nvalue = [11, 13]"] ;
37 -> 38 ;
39 [label="X[1] <= 21.1\ngini = 0.498\nsamples = 17\nvalue = [9, 8]"] ;
38 -> 39 ;
40 [label="X[1] <= 20.45\ngini = 0.48\nsamples = 10\nvalue = [4, 6]"] ;
39 -> 40 ;
41 [label="X[2] <= 0.1\ngini = 0.5\nsamples = 8\nvalue = [4, 4]"] ;
40 -> 41 ;
42 [label="X[1] <= 19.55\ngini = 0.49\nsamples = 7\nvalue = [4, 3]"] ;
41 -> 42 ;
43 [label="gini = 0.0\nsamples = 1\nvalue = [1, 0]"] ;
42 -> 43 ;
44 [label="X[1] <= 19.75\ngini = 0.5\nsamples = 6\nvalue = [3, 3]"] ;
42 -> 44 ;
45 [label="gini = 0.0\nsamples = 1\nvalue = [0, 1]"] ;
44 -> 45 ;
46 [label="X[1] <= 20.0\ngini = 0.48\nsamples = 5\nvalue = [3, 2]"] ;
44 -> 46 ;
47 [label="gini = 0.5\nsamples = 2\nvalue = [1, 1]"] ;
46 -> 47 ;
48 [label="X[1] <= 20.3\ngini = 0.444\nsamples = 3\nvalue = [2, 1]"] ;
46 -> 48 ;
49 [label="gini = 0.0\nsamples = 1\nvalue = [1, 0]"] ;
48 -> 49 ;
50 [label="gini = 0.5\nsamples = 2\nvalue = [1, 1]"] ;
48 -> 50 ;
51 [label="gini = 0.0\nsamples = 1\nvalue = [0, 1]"] ;
41 -> 51 ;
52 [label="gini = 0.0\nsamples = 2\nvalue = [0, 2]"] ;
40 -> 52 ;
53 [label="X[1] <= 22.35\ngini = 0.408\nsamples = 7\nvalue = [5, 2]"] ;
39 -> 53 ;
54 [label="gini = 0.0\nsamples = 2\nvalue = [2, 0]"] ;
53 -> 54 ;
55 [label="X[1] <= 22.6\ngini = 0.48\nsamples = 5\nvalue = [3, 2]"] ;
53 -> 55 ;
56 [label="gini = 0.0\nsamples = 1\nvalue = [0, 1]"] ;
55 -> 56 ;
57 [label="X[1] <= 23.25\ngini = 0.375\nsamples = 4\nvalue = [3, 1]"] ;
55 -> 57 ;
58 [label="gini = 0.0\nsamples = 2\nvalue = [2, 0]"] ;
57 -> 58 ;
59 [label="X[1] <= 24.0\ngini = 0.5\nsamples = 2\nvalue = [1, 1]"] ;
57 -> 59 ;
60 [label="gini = 0.0\nsamples = 1\nvalue = [0, 1]"] ;
59 -> 60 ;
61 [label="gini = 0.0\nsamples = 1\nvalue = [1, 0]"] ;
59 -> 61 ;
62 [label="X[1] <= 25.75\ngini = 0.408\nsamples = 7\nvalue = [2, 5]"] ;
38 -> 62 ;
63 [label="gini = 0.0\nsamples = 3\nvalue = [0, 3]"] ;
62 -> 63 ;
64 [label="X[1] <= 26.25\ngini = 0.5\nsamples = 4\nvalue = [2, 2]"] ;
62 -> 64 ;
65 [label="gini = 0.0\nsamples = 1\nvalue = [1, 0]"] ;
64 -> 65 ;
66 [label="X[1] <= 26.65\ngini = 0.444\nsamples = 3\nvalue = [1, 2]"] ;
64 -> 66 ;
67 [label="gini = 0.5\nsamples = 2\nvalue = [1, 1]"] ;
66 -> 67 ;
68 [label="gini = 0.0\nsamples = 1\nvalue = [0, 1]"] ;
66 -> 68 ;
69 [label="X[1] <= 20.5\ngini = 0.32\nsamples = 5\nvalue = [4, 1]"] ;
37 -> 69 ;
70 [label="gini = 0.0\nsamples = 1\nvalue = [0, 1]"] ;
69 -> 70 ;
71 [label="gini = 0.0\nsamples = 4\nvalue = [4, 0]"] ;
69 -> 71 ;
72 [label="gini = 0.0\nsamples = 2\nvalue = [2, 0]"] ;
36 -> 72 ;
73 [label="X[1] <= 31.85\ngini = 0.285\nsamples = 29\nvalue = [24, 5]"] ;
27 -> 73 ;
74 [label="X[1] <= 28.1\ngini = 0.159\nsamples = 23\nvalue = [21, 2]"] ;
73 -> 74 ;
75 [label="X[1] <= 27.85\ngini = 0.298\nsamples = 11\nvalue = [9, 2]"] ;
74 -> 75 ;
76 [label="X[1] <= 27.35\ngini = 0.18\nsamples = 10\nvalue = [9, 1]"] ;
75 -> 76 ;
77 [label="gini = 0.0\nsamples = 6\nvalue = [6, 0]"] ;
76 -> 77 ;
78 [label="X[1] <= 27.55\ngini = 0.375\nsamples = 4\nvalue = [3, 1]"] ;
76 -> 78 ;
79 [label="gini = 0.0\nsamples = 1\nvalue = [0, 1]"] ;
78 -> 79 ;
80 [label="gini = 0.0\nsamples = 3\nvalue = [3, 0]"] ;
78 -> 80 ;
81 [label="gini = 0.0\nsamples = 1\nvalue = [0, 1]"] ;
75 -> 81 ;
82 [label="gini = 0.0\nsamples = 12\nvalue = [12, 0]"] ;
74 -> 82 ;
83 [label="X[1] <= 32.3\ngini = 0.5\nsamples = 6\nvalue = [3, 3]"] ;
73 -> 83 ;
84 [label="gini = 0.0\nsamples = 2\nvalue = [0, 2]"] ;
83 -> 84 ;
85 [label="X[1] <= 34.25\ngini = 0.375\nsamples = 4\nvalue = [3, 1]"] ;
83 -> 85 ;
86 [label="gini = 0.0\nsamples = 2\nvalue = [2, 0]"] ;
85 -> 86 ;
87 [label="X[1] <= 34.9\ngini = 0.5\nsamples = 2\nvalue = [1, 1]"] ;
85 -> 87 ;
88 [label="gini = 0.0\nsamples = 1\nvalue = [0, 1]"] ;
87 -> 88 ;
89 [label="gini = 0.0\nsamples = 1\nvalue = [1, 0]"] ;
87 -> 89 ;
90 [label="gini = 0.0\nsamples = 6\nvalue = [6, 0]"] ;
26 -> 90 ;
91 [label="X[5] <= 45.0\ngini = 0.408\nsamples = 7\nvalue = [2, 5]"] ;
11 -> 91 ;
92 [label="gini = 0.0\nsamples = 2\nvalue = [2, 0]"] ;
91 -> 92 ;
93 [label="gini = 0.0\nsamples = 5\nvalue = [0, 5]"] ;
91 -> 93 ;
94 [label="X[11] <= 98.5\ngini = 0.159\nsamples = 138\nvalue = [126, 12]"] ;
10 -> 94 ;
95 [label="X[4] <= 5.85\ngini = 0.118\nsamples = 127\nvalue = [119, 8]"] ;
94 -> 95 ;
96 [label="X[1] <= 18.75\ngini = 0.105\nsamples = 126\nvalue = [119, 7]"] ;
95 -> 96 ;
97 [label="X[0] <= 6.55\ngini = 0.183\nsamples = 49\nvalue = [44, 5]"] ;
96 -> 97 ;
98 [label="X[2] <= 0.15\ngini = 0.05\nsamples = 39\nvalue = [38, 1]"] ;
97 -> 98 ;
99 [label="gini = 0.0\nsamples = 35\nvalue = [35, 0]"] ;
98 -> 99 ;
100 [label="X[7] <= 146.25\ngini = 0.375\nsamples = 4\nvalue = [3, 1]"] ;
98 -> 100 ;
101 [label="gini = 0.0\nsamples = 1\nvalue = [0, 1]"] ;
100 -> 101 ;
102 [label="gini = 0.0\nsamples = 3\nvalue = [3, 0]"] ;
100 -> 102 ;
103 [label="X[0] <= 7.1\ngini = 0.48\nsamples = 10\nvalue = [6, 4]"] ;
97 -> 103 ;
104 [label="gini = 0.0\nsamples = 3\nvalue = [0, 3]"] ;
103 -> 104 ;
105 [label="X[17] <= 13.45\ngini = 0.245\nsamples = 7\nvalue = [6, 1]"] ;
103 -> 105 ;
106 [label="gini = 0.0\nsamples = 6\nvalue = [6, 0]"] ;
105 -> 106 ;
107 [label="gini = 0.0\nsamples = 1\nvalue = [0, 1]"] ;
105 -> 107 ;
108 [label="X[0] <= 0.35\ngini = 0.051\nsamples = 77\nvalue = [75, 2]"] ;
96 -> 108 ;
109 [label="X[1] <= 21.1\ngini = 0.375\nsamples = 8\nvalue = [6, 2]"] ;
108 -> 109 ;
110 [label="gini = 0.0\nsamples = 5\nvalue = [5, 0]"] ;
109 -> 110 ;
111 [label="X[1] <= 22.55\ngini = 0.444\nsamples = 3\nvalue = [1, 2]"] ;
109 -> 111 ;
112 [label="gini = 0.0\nsamples = 2\nvalue = [0, 2]"] ;
111 -> 112 ;
113 [label="gini = 0.0\nsamples = 1\nvalue = [1, 0]"] ;
111 -> 113 ;
114 [label="gini = 0.0\nsamples = 69\nvalue = [69, 0]"] ;
108 -> 114 ;
115 [label="gini = 0.0\nsamples = 1\nvalue = [0, 1]"] ;
95 -> 115 ;
116 [label="X[2] <= 0.3\ngini = 0.463\nsamples = 11\nvalue = [7, 4]"] ;
94 -> 116 ;
117 [label="X[17] <= 10.8\ngini = 0.346\nsamples = 9\nvalue = [7, 2]"] ;
116 -> 117 ;
118 [label="X[1] <= 9.0\ngini = 0.219\nsamples = 8\nvalue = [7, 1]"] ;
117 -> 118 ;
119 [label="X[9] <= 9.5\ngini = 0.5\nsamples = 2\nvalue = [1, 1]"] ;
118 -> 119 ;
120 [label="gini = 0.0\nsamples = 1\nvalue = [1, 0]"] ;
119 -> 120 ;
121 [label="gini = 0.0\nsamples = 1\nvalue = [0, 1]"] ;
119 -> 121 ;
122 [label="gini = 0.0\nsamples = 6\nvalue = [6, 0]"] ;
118 -> 122 ;
123 [label="gini = 0.0\nsamples = 1\nvalue = [0, 1]"] ;
117 -> 123 ;
124 [label="gini = 0.0\nsamples = 2\nvalue = [0, 2]"] ;
116 -> 124 ;
125 [label="X[10] <= 5.0\ngini = 0.495\nsamples = 62\nvalue = [34, 28]"] ;
9 -> 125 ;
126 [label="X[3] <= 3.1\ngini = 0.386\nsamples = 23\nvalue = [6, 17]"] ;
125 -> 126 ;
127 [label="X[1] <= 25.45\ngini = 0.219\nsamples = 16\nvalue = [2, 14]"] ;
126 -> 127 ;
128 [label="X[13] <= 1017.5\ngini = 0.124\nsamples = 15\nvalue = [1, 14]"] ;
127 -> 128 ;
129 [label="gini = 0.0\nsamples = 13\nvalue = [0, 13]"] ;
128 -> 129 ;
130 [label="X[17] <= 6.55\ngini = 0.5\nsamples = 2\nvalue = [1, 1]"] ;
128 -> 130 ;
131 [label="gini = 0.0\nsamples = 1\nvalue = [0, 1]"] ;
130 -> 131 ;
132 [label="gini = 0.0\nsamples = 1\nvalue = [1, 0]"] ;
130 -> 132 ;
133 [label="gini = 0.0\nsamples = 1\nvalue = [1, 0]"] ;
127 -> 133 ;
134 [label="X[1] <= 25.3\ngini = 0.49\nsamples = 7\nvalue = [4, 3]"] ;
126 -> 134 ;
135 [label="X[9] <= 6.5\ngini = 0.32\nsamples = 5\nvalue = [4, 1]"] ;
134 -> 135 ;
136 [label="gini = 0.0\nsamples = 4\nvalue = [4, 0]"] ;
135 -> 136 ;
137 [label="gini = 0.0\nsamples = 1\nvalue = [0, 1]"] ;
135 -> 137 ;
138 [label="gini = 0.0\nsamples = 2\nvalue = [0, 2]"] ;
134 -> 138 ;
139 [label="X[17] <= 12.45\ngini = 0.405\nsamples = 39\nvalue = [28, 11]"] ;
125 -> 139 ;
140 [label="X[13] <= 1019.95\ngini = 0.153\nsamples = 24\nvalue = [22, 2]"] ;
139 -> 140 ;
141 [label="X[1] <= 38.0\ngini = 0.083\nsamples = 23\nvalue = [22, 1]"] ;
140 -> 141 ;
142 [label="gini = 0.0\nsamples = 20\nvalue = [20, 0]"] ;
141 -> 142 ;
143 [label="X[5] <= 33.75\ngini = 0.444\nsamples = 3\nvalue = [2, 1]"] ;
141 -> 143 ;
144 [label="gini = 0.0\nsamples = 1\nvalue = [0, 1]"] ;
143 -> 144 ;
145 [label="gini = 0.0\nsamples = 2\nvalue = [2, 0]"] ;
143 -> 145 ;
146 [label="gini = 0.0\nsamples = 1\nvalue = [0, 1]"] ;
140 -> 146 ;
147 [label="X[14] <= 1014.35\ngini = 0.48\nsamples = 15\nvalue = [6, 9]"] ;
139 -> 147 ;
148 [label="gini = 0.0\nsamples = 4\nvalue = [0, 4]"] ;
147 -> 148 ;
149 [label="X[5] <= 146.25\ngini = 0.496\nsamples = 11\nvalue = [6, 5]"] ;
147 -> 149 ;
150 [label="gini = 0.0\nsamples = 4\nvalue = [4, 0]"] ;
149 -> 150 ;
151 [label="X[9] <= 12.0\ngini = 0.408\nsamples = 7\nvalue = [2, 5]"] ;
149 -> 151 ;
152 [label="gini = 0.0\nsamples = 4\nvalue = [0, 4]"] ;
151 -> 152 ;
153 [label="X[10] <= 18.5\ngini = 0.444\nsamples = 3\nvalue = [2, 1]"] ;
151 -> 153 ;
154 [label="gini = 0.0\nsamples = 2\nvalue = [2, 0]"] ;
153 -> 154 ;
155 [label="gini = 0.0\nsamples = 1\nvalue = [0, 1]"] ;
153 -> 155 ;
156 [label="X[7] <= 213.75\ngini = 0.148\nsamples = 186\nvalue = [171, 15]"] ;
8 -> 156 ;
157 [label="X[2] <= 1.7\ngini = 0.084\nsamples = 160\nvalue = [153, 7]"] ;
156 -> 157 ;
158 [label="X[17] <= 9.7\ngini = 0.062\nsamples = 155\nvalue = [150, 5]"] ;
157 -> 158 ;
159 [label="X[17] <= 9.55\ngini = 0.133\nsamples = 70\nvalue = [65, 5]"] ;
158 -> 159 ;
160 [label="X[1] <= 19.05\ngini = 0.109\nsamples = 69\nvalue = [65, 4]"] ;
159 -> 160 ;
161 [label="X[2] <= 0.5\ngini = 0.038\nsamples = 52\nvalue = [51, 1]"] ;
160 -> 161 ;
162 [label="gini = 0.0\nsamples = 42\nvalue = [42, 0]"] ;
161 -> 162 ;
163 [label="X[0] <= 5.7\ngini = 0.18\nsamples = 10\nvalue = [9, 1]"] ;
161 -> 163 ;
164 [label="gini = 0.0\nsamples = 8\nvalue = [8, 0]"] ;
163 -> 164 ;
165 [label="X[0] <= 6.55\ngini = 0.5\nsamples = 2\nvalue = [1, 1]"] ;
163 -> 165 ;
166 [label="gini = 0.0\nsamples = 1\nvalue = [0, 1]"] ;
165 -> 166 ;
167 [label="gini = 0.0\nsamples = 1\nvalue = [1, 0]"] ;
165 -> 167 ;
168 [label="X[6] <= 29.0\ngini = 0.291\nsamples = 17\nvalue = [14, 3]"] ;
160 -> 168 ;
169 [label="X[13] <= 1026.15\ngini = 0.219\nsamples = 16\nvalue = [14, 2]"] ;
168 -> 169 ;
170 [label="X[14] <= 1020.6\ngini = 0.346\nsamples = 9\nvalue = [7, 2]"] ;
169 -> 170 ;
171 [label="gini = 0.0\nsamples = 6\nvalue = [6, 0]"] ;
170 -> 171 ;
172 [label="X[3] <= 4.4\ngini = 0.444\nsamples = 3\nvalue = [1, 2]"] ;
170 -> 172 ;
173 [label="gini = 0.0\nsamples = 2\nvalue = [0, 2]"] ;
172 -> 173 ;
174 [label="gini = 0.0\nsamples = 1\nvalue = [1, 0]"] ;
172 -> 174 ;
175 [label="gini = 0.0\nsamples = 7\nvalue = [7, 0]"] ;
169 -> 175 ;
176 [label="gini = 0.0\nsamples = 1\nvalue = [0, 1]"] ;
168 -> 176 ;
177 [label="gini = 0.0\nsamples = 1\nvalue = [0, 1]"] ;
159 -> 177 ;
178 [label="gini = 0.0\nsamples = 85\nvalue = [85, 0]"] ;
158 -> 178 ;
179 [label="X[8] <= 281.25\ngini = 0.48\nsamples = 5\nvalue = [3, 2]"] ;
157 -> 179 ;
180 [label="gini = 0.0\nsamples = 3\nvalue = [3, 0]"] ;
179 -> 180 ;
181 [label="gini = 0.0\nsamples = 2\nvalue = [0, 2]"] ;
179 -> 181 ;
182 [label="X[8] <= 236.25\ngini = 0.426\nsamples = 26\nvalue = [18, 8]"] ;
156 -> 182 ;
183 [label="X[14] <= 1028.65\ngini = 0.32\nsamples = 20\nvalue = [16, 4]"] ;
182 -> 183 ;
184 [label="X[11] <= 80.0\ngini = 0.266\nsamples = 19\nvalue = [16, 3]"] ;
183 -> 184 ;
185 [label="gini = 0.0\nsamples = 12\nvalue = [12, 0]"] ;
184 -> 185 ;
186 [label="X[14] <= 1023.75\ngini = 0.49\nsamples = 7\nvalue = [4, 3]"] ;
184 -> 186 ;
187 [label="X[0] <= 9.75\ngini = 0.375\nsamples = 4\nvalue = [1, 3]"] ;
186 -> 187 ;
188 [label="gini = 0.0\nsamples = 3\nvalue = [0, 3]"] ;
187 -> 188 ;
189 [label="gini = 0.0\nsamples = 1\nvalue = [1, 0]"] ;
187 -> 189 ;
190 [label="gini = 0.0\nsamples = 3\nvalue = [3, 0]"] ;
186 -> 190 ;
191 [label="gini = 0.0\nsamples = 1\nvalue = [0, 1]"] ;
183 -> 191 ;
192 [label="X[13] <= 1027.95\ngini = 0.444\nsamples = 6\nvalue = [2, 4]"] ;
182 -> 192 ;
193 [label="gini = 0.0\nsamples = 4\nvalue = [0, 4]"] ;
192 -> 193 ;
194 [label="gini = 0.0\nsamples = 2\nvalue = [2, 0]"] ;
192 -> 194 ;
195 [label="X[3] <= 2.1\ngini = 0.485\nsamples = 63\nvalue = [37, 26]"] ;
7 -> 195 ;
196 [label="X[8] <= 258.75\ngini = 0.499\nsamples = 55\nvalue = [29, 26]"] ;
195 -> 196 ;
197 [label="X[7] <= 78.75\ngini = 0.438\nsamples = 37\nvalue = [25, 12]"] ;
196 -> 197 ;
198 [label="X[14] <= 1004.85\ngini = 0.495\nsamples = 20\nvalue = [9, 11]"] ;
197 -> 198 ;
199 [label="X[2] <= 0.4\ngini = 0.473\nsamples = 13\nvalue = [8, 5]"] ;
198 -> 199 ;
200 [label="X[5] <= 180.0\ngini = 0.397\nsamples = 11\nvalue = [8, 3]"] ;
199 -> 200 ;
201 [label="gini = 0.0\nsamples = 5\nvalue = [5, 0]"] ;
200 -> 201 ;
202 [label="X[5] <= 258.75\ngini = 0.5\nsamples = 6\nvalue = [3, 3]"] ;
200 -> 202 ;
203 [label="gini = 0.0\nsamples = 2\nvalue = [0, 2]"] ;
202 -> 203 ;
204 [label="X[0] <= 4.2\ngini = 0.375\nsamples = 4\nvalue = [3, 1]"] ;
202 -> 204 ;
205 [label="gini = 0.0\nsamples = 3\nvalue = [3, 0]"] ;
204 -> 205 ;
206 [label="gini = 0.0\nsamples = 1\nvalue = [0, 1]"] ;
204 -> 206 ;
207 [label="gini = 0.0\nsamples = 2\nvalue = [0, 2]"] ;
199 -> 207 ;
208 [label="X[17] <= 15.0\ngini = 0.245\nsamples = 7\nvalue = [1, 6]"] ;
198 -> 208 ;
209 [label="gini = 0.0\nsamples = 6\nvalue = [0, 6]"] ;
208 -> 209 ;
210 [label="gini = 0.0\nsamples = 1\nvalue = [1, 0]"] ;
208 -> 210 ;
211 [label="X[6] <= 53.0\ngini = 0.111\nsamples = 17\nvalue = [16, 1]"] ;
197 -> 211 ;
212 [label="gini = 0.0\nsamples = 16\nvalue = [16, 0]"] ;
211 -> 212 ;
213 [label="gini = 0.0\nsamples = 1\nvalue = [0, 1]"] ;
211 -> 213 ;
214 [label="X[18] <= 19.65\ngini = 0.346\nsamples = 18\nvalue = [4, 14]"] ;
196 -> 214 ;
215 [label="X[13] <= 1026.95\ngini = 0.219\nsamples = 16\nvalue = [2, 14]"] ;
214 -> 215 ;
216 [label="X[0] <= -1.35\ngini = 0.124\nsamples = 15\nvalue = [1, 14]"] ;
215 -> 216 ;
217 [label="gini = 0.0\nsamples = 1\nvalue = [1, 0]"] ;
216 -> 217 ;
218 [label="gini = 0.0\nsamples = 14\nvalue = [0, 14]"] ;
216 -> 218 ;
219 [label="gini = 0.0\nsamples = 1\nvalue = [1, 0]"] ;
215 -> 219 ;
220 [label="gini = 0.0\nsamples = 2\nvalue = [2, 0]"] ;
214 -> 220 ;
221 [label="gini = 0.0\nsamples = 8\nvalue = [8, 0]"] ;
195 -> 221 ;
222 [label="X[11] <= 78.5\ngini = 0.106\nsamples = 729\nvalue = [688, 41]"] ;
6 -> 222 ;
223 [label="X[0] <= 24.95\ngini = 0.081\nsamples = 662\nvalue = [634, 28]"] ;
222 -> 223 ;
224 [label="X[14] <= 1024.6\ngini = 0.063\nsamples = 619\nvalue = [599, 20]"] ;
223 -> 224 ;
225 [label="X[3] <= 1.1\ngini = 0.06\nsamples = 617\nvalue = [598, 19]"] ;
224 -> 225 ;
226 [label="X[0] <= 21.25\ngini = 0.115\nsamples = 244\nvalue = [229, 15]"] ;
225 -> 226 ;
227 [label="X[5] <= 303.75\ngini = 0.097\nsamples = 235\nvalue = [223, 12]"] ;
226 -> 227 ;
228 [label="X[1] <= 21.45\ngini = 0.083\nsamples = 230\nvalue = [220, 10]"] ;
227 -> 228 ;
229 [label="X[0] <= 17.0\ngini = 0.231\nsamples = 30\nvalue = [26, 4]"] ;
228 -> 229 ;
230 [label="X[2] <= 0.1\ngini = 0.133\nsamples = 28\nvalue = [26, 2]"] ;
229 -> 230 ;
231 [label="gini = 0.0\nsamples = 18\nvalue = [18, 0]"] ;
230 -> 231 ;
232 [label="X[17] <= 17.0\ngini = 0.32\nsamples = 10\nvalue = [8, 2]"] ;
230 -> 232 ;
233 [label="X[1] <= 17.3\ngini = 0.198\nsamples = 9\nvalue = [8, 1]"] ;
232 -> 233 ;
234 [label="gini = 0.0\nsamples = 1\nvalue = [0, 1]"] ;
233 -> 234 ;
235 [label="gini = 0.0\nsamples = 8\nvalue = [8, 0]"] ;
233 -> 235 ;
236 [label="gini = 0.0\nsamples = 1\nvalue = [0, 1]"] ;
232 -> 236 ;
237 [label="gini = 0.0\nsamples = 2\nvalue = [0, 2]"] ;
229 -> 237 ;
238 [label="X[1] <= 25.9\ngini = 0.058\nsamples = 200\nvalue = [194, 6]"] ;
228 -> 238 ;
239 [label="gini = 0.0\nsamples = 74\nvalue = [74, 0]"] ;
238 -> 239 ;
240 [label="X[1] <= 26.05\ngini = 0.091\nsamples = 126\nvalue = [120, 6]"] ;
238 -> 240 ;
241 [label="X[17] <= 20.55\ngini = 0.48\nsamples = 5\nvalue = [3, 2]"] ;
240 -> 241 ;
242 [label="X[9] <= 6.5\ngini = 0.444\nsamples = 3\nvalue = [1, 2]"] ;
241 -> 242 ;
243 [label="gini = 0.0\nsamples = 1\nvalue = [1, 0]"] ;
242 -> 243 ;
244 [label="gini = 0.0\nsamples = 2\nvalue = [0, 2]"] ;
242 -> 244 ;
245 [label="gini = 0.0\nsamples = 2\nvalue = [2, 0]"] ;
241 -> 245 ;
246 [label="X[0] <= 17.55\ngini = 0.064\nsamples = 121\nvalue = [117, 4]"] ;
240 -> 246 ;
247 [label="X[9] <= 3.0\ngini = 0.025\nsamples = 80\nvalue = [79, 1]"] ;
246 -> 247 ;
248 [label="X[10] <= 15.0\ngini = 0.124\nsamples = 15\nvalue = [14, 1]"] ;
247 -> 248 ;
249 [label="gini = 0.0\nsamples = 14\nvalue = [14, 0]"] ;
248 -> 249 ;
250 [label="gini = 0.0\nsamples = 1\nvalue = [0, 1]"] ;
248 -> 250 ;
251 [label="gini = 0.0\nsamples = 65\nvalue = [65, 0]"] ;
247 -> 251 ;
252 [label="X[0] <= 17.7\ngini = 0.136\nsamples = 41\nvalue = [38, 3]"] ;
246 -> 252 ;
253 [label="gini = 0.0\nsamples = 1\nvalue = [0, 1]"] ;
252 -> 253 ;
254 [label="X[0] <= 18.65\ngini = 0.095\nsamples = 40\nvalue = [38, 2]"] ;
252 -> 254 ;
255 [label="X[15] <= 1.5\ngini = 0.26\nsamples = 13\nvalue = [11, 2]"] ;
254 -> 255 ;
256 [label="X[11] <= 73.5\ngini = 0.153\nsamples = 12\nvalue = [11, 1]"] ;
255 -> 256 ;
257 [label="gini = 0.0\nsamples = 11\nvalue = [11, 0]"] ;
256 -> 257 ;
258 [label="gini = 0.0\nsamples = 1\nvalue = [0, 1]"] ;
256 -> 258 ;
259 [label="gini = 0.0\nsamples = 1\nvalue = [0, 1]"] ;
255 -> 259 ;
260 [label="gini = 0.0\nsamples = 27\nvalue = [27, 0]"] ;
254 -> 260 ;
261 [label="X[7] <= 168.75\ngini = 0.48\nsamples = 5\nvalue = [3, 2]"] ;
227 -> 261 ;
262 [label="gini = 0.0\nsamples = 3\nvalue = [3, 0]"] ;
261 -> 262 ;
263 [label="gini = 0.0\nsamples = 2\nvalue = [0, 2]"] ;
261 -> 263 ;
264 [label="X[17] <= 27.2\ngini = 0.444\nsamples = 9\nvalue = [6, 3]"] ;
226 -> 264 ;
265 [label="X[7] <= 33.75\ngini = 0.375\nsamples = 4\nvalue = [1, 3]"] ;
264 -> 265 ;
266 [label="gini = 0.0\nsamples = 1\nvalue = [1, 0]"] ;
265 -> 266 ;
267 [label="gini = 0.0\nsamples = 3\nvalue = [0, 3]"] ;
265 -> 267 ;
268 [label="gini = 0.0\nsamples = 5\nvalue = [5, 0]"] ;
264 -> 268 ;
269 [label="X[6] <= 53.0\ngini = 0.021\nsamples = 373\nvalue = [369, 4]"] ;
225 -> 269 ;
270 [label="X[11] <= 71.5\ngini = 0.016\nsamples = 371\nvalue = [368, 3]"] ;
269 -> 270 ;
271 [label="X[1] <= 21.05\ngini = 0.006\nsamples = 331\nvalue = [330, 1]"] ;
270 -> 271 ;
272 [label="X[1] <= 20.85\ngini = 0.18\nsamples = 10\nvalue = [9, 1]"] ;
271 -> 272 ;
273 [label="gini = 0.0\nsamples = 9\nvalue = [9, 0]"] ;
272 -> 273 ;
274 [label="gini = 0.0\nsamples = 1\nvalue = [0, 1]"] ;
272 -> 274 ;
275 [label="gini = 0.0\nsamples = 321\nvalue = [321, 0]"] ;
271 -> 275 ;
276 [label="X[5] <= 168.75\ngini = 0.095\nsamples = 40\nvalue = [38, 2]"] ;
270 -> 276 ;
277 [label="X[13] <= 1011.4\ngini = 0.053\nsamples = 37\nvalue = [36, 1]"] ;
276 -> 277 ;
278 [label="X[3] <= 6.7\ngini = 0.375\nsamples = 4\nvalue = [3, 1]"] ;
277 -> 278 ;
279 [label="gini = 0.0\nsamples = 1\nvalue = [0, 1]"] ;
278 -> 279 ;
280 [label="gini = 0.0\nsamples = 3\nvalue = [3, 0]"] ;
278 -> 280 ;
281 [label="gini = 0.0\nsamples = 33\nvalue = [33, 0]"] ;
277 -> 281 ;
282 [label="X[8] <= 146.25\ngini = 0.444\nsamples = 3\nvalue = [2, 1]"] ;
276 -> 282 ;
283 [label="gini = 0.0\nsamples = 2\nvalue = [2, 0]"] ;
282 -> 283 ;
284 [label="gini = 0.0\nsamples = 1\nvalue = [0, 1]"] ;
282 -> 284 ;
285 [label="X[11] <= 48.0\ngini = 0.5\nsamples = 2\nvalue = [1, 1]"] ;
269 -> 285 ;
286 [label="gini = 0.0\nsamples = 1\nvalue = [1, 0]"] ;
285 -> 286 ;
287 [label="gini = 0.0\nsamples = 1\nvalue = [0, 1]"] ;
285 -> 287 ;
288 [label="X[10] <= 15.0\ngini = 0.5\nsamples = 2\nvalue = [1, 1]"] ;
224 -> 288 ;
289 [label="gini = 0.0\nsamples = 1\nvalue = [1, 0]"] ;
288 -> 289 ;
290 [label="gini = 0.0\nsamples = 1\nvalue = [0, 1]"] ;
288 -> 290 ;
291 [label="X[1] <= 36.95\ngini = 0.303\nsamples = 43\nvalue = [35, 8]"] ;
223 -> 291 ;
292 [label="X[6] <= 41.0\ngini = 0.444\nsamples = 6\nvalue = [2, 4]"] ;
291 -> 292 ;
293 [label="X[6] <= 17.5\ngini = 0.444\nsamples = 3\nvalue = [2, 1]"] ;
292 -> 293 ;
294 [label="gini = 0.0\nsamples = 1\nvalue = [0, 1]"] ;
293 -> 294 ;
295 [label="gini = 0.0\nsamples = 2\nvalue = [2, 0]"] ;
293 -> 295 ;
296 [label="gini = 0.0\nsamples = 3\nvalue = [0, 3]"] ;
292 -> 296 ;
297 [label="X[7] <= 303.75\ngini = 0.193\nsamples = 37\nvalue = [33, 4]"] ;
291 -> 297 ;
298 [label="X[14] <= 1004.2\ngini = 0.077\nsamples = 25\nvalue = [24, 1]"] ;
297 -> 298 ;
299 [label="X[16] <= 4.0\ngini = 0.5\nsamples = 2\nvalue = [1, 1]"] ;
298 -> 299 ;
300 [label="gini = 0.0\nsamples = 1\nvalue = [0, 1]"] ;
299 -> 300 ;
301 [label="gini = 0.0\nsamples = 1\nvalue = [1, 0]"] ;
299 -> 301 ;
302 [label="gini = 0.0\nsamples = 23\nvalue = [23, 0]"] ;
298 -> 302 ;
303 [label="X[9] <= 18.0\ngini = 0.375\nsamples = 12\nvalue = [9, 3]"] ;
297 -> 303 ;
304 [label="X[3] <= 2.0\ngini = 0.18\nsamples = 10\nvalue = [9, 1]"] ;
303 -> 304 ;
305 [label="X[1] <= 40.05\ngini = 0.5\nsamples = 2\nvalue = [1, 1]"] ;
304 -> 305 ;
306 [label="gini = 0.0\nsamples = 1\nvalue = [0, 1]"] ;
305 -> 306 ;
307 [label="gini = 0.0\nsamples = 1\nvalue = [1, 0]"] ;
305 -> 307 ;
308 [label="gini = 0.0\nsamples = 8\nvalue = [8, 0]"] ;
304 -> 308 ;
309 [label="gini = 0.0\nsamples = 2\nvalue = [0, 2]"] ;
303 -> 309 ;
310 [label="X[14] <= 1010.95\ngini = 0.313\nsamples = 67\nvalue = [54, 13]"] ;
222 -> 310 ;
311 [label="X[13] <= 1005.2\ngini = 0.405\nsamples = 46\nvalue = [33, 13]"] ;
310 -> 311 ;
312 [label="X[6] <= 29.0\ngini = 0.147\nsamples = 25\nvalue = [23, 2]"] ;
311 -> 312 ;
313 [label="X[0] <= 19.1\ngini = 0.08\nsamples = 24\nvalue = [23, 1]"] ;
312 -> 313 ;
314 [label="gini = 0.0\nsamples = 21\nvalue = [21, 0]"] ;
313 -> 314 ;
315 [label="X[9] <= 4.5\ngini = 0.444\nsamples = 3\nvalue = [2, 1]"] ;
313 -> 315 ;
316 [label="gini = 0.0\nsamples = 1\nvalue = [0, 1]"] ;
315 -> 316 ;
317 [label="gini = 0.0\nsamples = 2\nvalue = [2, 0]"] ;
315 -> 317 ;
318 [label="gini = 0.0\nsamples = 1\nvalue = [0, 1]"] ;
312 -> 318 ;
319 [label="X[11] <= 83.5\ngini = 0.499\nsamples = 21\nvalue = [10, 11]"] ;
311 -> 319 ;
320 [label="X[1] <= 30.8\ngini = 0.444\nsamples = 12\nvalue = [8, 4]"] ;
319 -> 320 ;
321 [label="X[1] <= 21.3\ngini = 0.32\nsamples = 10\nvalue = [8, 2]"] ;
320 -> 321 ;
322 [label="gini = 0.0\nsamples = 1\nvalue = [0, 1]"] ;
321 -> 322 ;
323 [label="X[17] <= 21.85\ngini = 0.198\nsamples = 9\nvalue = [8, 1]"] ;
321 -> 323 ;
324 [label="gini = 0.0\nsamples = 7\nvalue = [7, 0]"] ;
323 -> 324 ;
325 [label="X[7] <= 78.75\ngini = 0.5\nsamples = 2\nvalue = [1, 1]"] ;
323 -> 325 ;
326 [label="gini = 0.0\nsamples = 1\nvalue = [0, 1]"] ;
325 -> 326 ;
327 [label="gini = 0.0\nsamples = 1\nvalue = [1, 0]"] ;
325 -> 327 ;
328 [label="gini = 0.0\nsamples = 2\nvalue = [0, 2]"] ;
320 -> 328 ;
329 [label="X[1] <= 25.85\ngini = 0.346\nsamples = 9\nvalue = [2, 7]"] ;
319 -> 329 ;
330 [label="gini = 0.0\nsamples = 6\nvalue = [0, 6]"] ;
329 -> 330 ;
331 [label="X[3] <= 3.0\ngini = 0.444\nsamples = 3\nvalue = [2, 1]"] ;
329 -> 331 ;
332 [label="gini = 0.0\nsamples = 1\nvalue = [0, 1]"] ;
331 -> 332 ;
333 [label="gini = 0.0\nsamples = 2\nvalue = [2, 0]"] ;
331 -> 333 ;
334 [label="gini = 0.0\nsamples = 21\nvalue = [21, 0]"] ;
310 -> 334 ;
335 [label="X[14] <= 1013.45\ngini = 0.378\nsamples = 776\nvalue = [580, 196]"] ;
5 -> 335 ;
336 [label="X[11] <= 67.5\ngini = 0.422\nsamples = 539\nvalue = [376, 163]"] ;
335 -> 336 ;
337 [label="X[13] <= 1010.75\ngini = 0.304\nsamples = 182\nvalue = [148, 34]"] ;
336 -> 337 ;
338 [label="X[8] <= 281.25\ngini = 0.377\nsamples = 107\nvalue = [80, 27]"] ;
337 -> 338 ;
339 [label="X[16] <= 6.5\ngini = 0.341\nsamples = 101\nvalue = [79, 22]"] ;
338 -> 339 ;
340 [label="X[4] <= 7.7\ngini = 0.315\nsamples = 97\nvalue = [78, 19]"] ;
339 -> 340 ;
341 [label="X[9] <= 48.0\ngini = 0.296\nsamples = 94\nvalue = [77, 17]"] ;
340 -> 341 ;
342 [label="X[1] <= 20.35\ngini = 0.285\nsamples = 93\nvalue = [77, 16]"] ;
341 -> 342 ;
343 [label="gini = 0.0\nsamples = 17\nvalue = [17, 0]"] ;
342 -> 343 ;
344 [label="X[1] <= 20.65\ngini = 0.332\nsamples = 76\nvalue = [60, 16]"] ;
342 -> 344 ;
345 [label="gini = 0.0\nsamples = 1\nvalue = [0, 1]"] ;
344 -> 345 ;
346 [label="X[1] <= 38.4\ngini = 0.32\nsamples = 75\nvalue = [60, 15]"] ;
344 -> 346 ;
347 [label="X[1] <= 37.7\ngini = 0.355\nsamples = 65\nvalue = [50, 15]"] ;
346 -> 347 ;
348 [label="X[17] <= 24.8\ngini = 0.328\nsamples = 63\nvalue = [50, 13]"] ;
347 -> 348 ;
349 [label="X[0] <= 15.4\ngini = 0.273\nsamples = 49\nvalue = [41, 8]"] ;
348 -> 349 ;
350 [label="X[11] <= 56.5\ngini = 0.159\nsamples = 23\nvalue = [21, 2]"] ;
349 -> 350 ;
351 [label="gini = 0.0\nsamples = 14\nvalue = [14, 0]"] ;
350 -> 351 ;
352 [label="X[9] <= 8.0\ngini = 0.346\nsamples = 9\nvalue = [7, 2]"] ;
350 -> 352 ;
353 [label="gini = 0.0\nsamples = 6\nvalue = [6, 0]"] ;
352 -> 353 ;
354 [label="X[9] <= 14.0\ngini = 0.444\nsamples = 3\nvalue = [1, 2]"] ;
352 -> 354 ;
355 [label="gini = 0.0\nsamples = 2\nvalue = [0, 2]"] ;
354 -> 355 ;
356 [label="gini = 0.0\nsamples = 1\nvalue = [1, 0]"] ;
354 -> 356 ;
357 [label="X[13] <= 1009.6\ngini = 0.355\nsamples = 26\nvalue = [20, 6]"] ;
349 -> 357 ;
358 [label="X[1] <= 24.9\ngini = 0.32\nsamples = 25\nvalue = [20, 5]"] ;
357 -> 358 ;
359 [label="X[11] <= 53.5\ngini = 0.48\nsamples = 10\nvalue = [6, 4]"] ;
358 -> 359 ;
360 [label="gini = 0.0\nsamples = 3\nvalue = [0, 3]"] ;
359 -> 360 ;
361 [label="X[1] <= 24.75\ngini = 0.245\nsamples = 7\nvalue = [6, 1]"] ;
359 -> 361 ;
362 [label="gini = 0.0\nsamples = 6\nvalue = [6, 0]"] ;
361 -> 362 ;
363 [label="gini = 0.0\nsamples = 1\nvalue = [0, 1]"] ;
361 -> 363 ;
364 [label="X[0] <= 19.8\ngini = 0.124\nsamples = 15\nvalue = [14, 1]"] ;
358 -> 364 ;
365 [label="gini = 0.0\nsamples = 11\nvalue = [11, 0]"] ;
364 -> 365 ;
366 [label="X[0] <= 20.1\ngini = 0.375\nsamples = 4\nvalue = [3, 1]"] ;
364 -> 366 ;
367 [label="gini = 0.0\nsamples = 1\nvalue = [0, 1]"] ;
366 -> 367 ;
368 [label="gini = 0.0\nsamples = 3\nvalue = [3, 0]"] ;
366 -> 368 ;
369 [label="gini = 0.0\nsamples = 1\nvalue = [0, 1]"] ;
357 -> 369 ;
370 [label="X[3] <= 2.05\ngini = 0.459\nsamples = 14\nvalue = [9, 5]"] ;
348 -> 370 ;
371 [label="X[1] <= 33.35\ngini = 0.494\nsamples = 9\nvalue = [4, 5]"] ;
370 -> 371 ;
372 [label="X[17] <= 25.5\ngini = 0.444\nsamples = 6\nvalue = [4, 2]"] ;
371 -> 372 ;
373 [label="gini = 0.0\nsamples = 2\nvalue = [0, 2]"] ;
372 -> 373 ;
374 [label="gini = 0.0\nsamples = 4\nvalue = [4, 0]"] ;
372 -> 374 ;
375 [label="gini = 0.0\nsamples = 3\nvalue = [0, 3]"] ;
371 -> 375 ;
376 [label="gini = 0.0\nsamples = 5\nvalue = [5, 0]"] ;
370 -> 376 ;
377 [label="gini = 0.0\nsamples = 2\nvalue = [0, 2]"] ;
347 -> 377 ;
378 [label="gini = 0.0\nsamples = 10\nvalue = [10, 0]"] ;
346 -> 378 ;
379 [label="gini = 0.0\nsamples = 1\nvalue = [0, 1]"] ;
341 -> 379 ;
380 [label="X[14] <= 1011.4\ngini = 0.444\nsamples = 3\nvalue = [1, 2]"] ;
340 -> 380 ;
381 [label="gini = 0.0\nsamples = 2\nvalue = [0, 2]"] ;
380 -> 381 ;
382 [label="gini = 0.0\nsamples = 1\nvalue = [1, 0]"] ;
380 -> 382 ;
383 [label="X[0] <= 24.3\ngini = 0.375\nsamples = 4\nvalue = [1, 3]"] ;
339 -> 383 ;
384 [label="gini = 0.0\nsamples = 3\nvalue = [0, 3]"] ;
383 -> 384 ;
385 [label="gini = 0.0\nsamples = 1\nvalue = [1, 0]"] ;
383 -> 385 ;
386 [label="X[9] <= 5.5\ngini = 0.278\nsamples = 6\nvalue = [1, 5]"] ;
338 -> 386 ;
387 [label="gini = 0.0\nsamples = 1\nvalue = [1, 0]"] ;
386 -> 387 ;
388 [label="gini = 0.0\nsamples = 5\nvalue = [0, 5]"] ;
386 -> 388 ;
389 [label="X[8] <= 11.25\ngini = 0.169\nsamples = 75\nvalue = [68, 7]"] ;
337 -> 389 ;
390 [label="X[7] <= 56.25\ngini = 0.388\nsamples = 19\nvalue = [14, 5]"] ;
389 -> 390 ;
391 [label="gini = 0.0\nsamples = 3\nvalue = [0, 3]"] ;
390 -> 391 ;
392 [label="X[9] <= 4.0\ngini = 0.219\nsamples = 16\nvalue = [14, 2]"] ;
390 -> 392 ;
393 [label="gini = 0.0\nsamples = 1\nvalue = [0, 1]"] ;
392 -> 393 ;
394 [label="X[13] <= 1013.1\ngini = 0.124\nsamples = 15\nvalue = [14, 1]"] ;
392 -> 394 ;
395 [label="X[1] <= 20.2\ngini = 0.5\nsamples = 2\nvalue = [1, 1]"] ;
394 -> 395 ;
396 [label="gini = 0.0\nsamples = 1\nvalue = [1, 0]"] ;
395 -> 396 ;
397 [label="gini = 0.0\nsamples = 1\nvalue = [0, 1]"] ;
395 -> 397 ;
398 [label="gini = 0.0\nsamples = 13\nvalue = [13, 0]"] ;
394 -> 398 ;
399 [label="X[2] <= 0.5\ngini = 0.069\nsamples = 56\nvalue = [54, 2]"] ;
389 -> 399 ;
400 [label="X[17] <= 31.75\ngini = 0.037\nsamples = 53\nvalue = [52, 1]"] ;
399 -> 400 ;
401 [label="gini = 0.0\nsamples = 47\nvalue = [47, 0]"] ;
400 -> 401 ;
402 [label="X[11] <= 63.0\ngini = 0.278\nsamples = 6\nvalue = [5, 1]"] ;
400 -> 402 ;
403 [label="gini = 0.0\nsamples = 5\nvalue = [5, 0]"] ;
402 -> 403 ;
404 [label="gini = 0.0\nsamples = 1\nvalue = [0, 1]"] ;
402 -> 404 ;
405 [label="X[18] <= 18.95\ngini = 0.444\nsamples = 3\nvalue = [2, 1]"] ;
399 -> 405 ;
406 [label="gini = 0.0\nsamples = 2\nvalue = [2, 0]"] ;
405 -> 406 ;
407 [label="gini = 0.0\nsamples = 1\nvalue = [0, 1]"] ;
405 -> 407 ;
408 [label="X[14] <= 497.45\ngini = 0.462\nsamples = 357\nvalue = [228, 129]"] ;
336 -> 408 ;
409 [label="X[1] <= 13.45\ngini = 0.388\nsamples = 194\nvalue = [143, 51]"] ;
408 -> 409 ;
410 [label="gini = 0.0\nsamples = 16\nvalue = [16, 0]"] ;
409 -> 410 ;
411 [label="X[1] <= 21.35\ngini = 0.409\nsamples = 178\nvalue = [127, 51]"] ;
409 -> 411 ;
412 [label="X[11] <= 75.5\ngini = 0.496\nsamples = 46\nvalue = [25, 21]"] ;
411 -> 412 ;
413 [label="X[17] <= 18.3\ngini = 0.278\nsamples = 12\nvalue = [10, 2]"] ;
412 -> 413 ;
414 [label="X[6] <= 19.5\ngini = 0.165\nsamples = 11\nvalue = [10, 1]"] ;
413 -> 414 ;
415 [label="gini = 0.0\nsamples = 10\nvalue = [10, 0]"] ;
414 -> 415 ;
416 [label="gini = 0.0\nsamples = 1\nvalue = [0, 1]"] ;
414 -> 416 ;
417 [label="gini = 0.0\nsamples = 1\nvalue = [0, 1]"] ;
413 -> 417 ;
418 [label="X[13] <= 1022.2\ngini = 0.493\nsamples = 34\nvalue = [15, 19]"] ;
412 -> 418 ;
419 [label="X[1] <= 18.7\ngini = 0.464\nsamples = 30\nvalue = [11, 19]"] ;
418 -> 419 ;
420 [label="X[11] <= 81.5\ngini = 0.18\nsamples = 10\nvalue = [1, 9]"] ;
419 -> 420 ;
421 [label="gini = 0.0\nsamples = 1\nvalue = [1, 0]"] ;
420 -> 421 ;
422 [label="gini = 0.0\nsamples = 9\nvalue = [0, 9]"] ;
420 -> 422 ;
423 [label="X[1] <= 19.85\ngini = 0.5\nsamples = 20\nvalue = [10, 10]"] ;
419 -> 423 ;
424 [label="X[17] <= 13.65\ngini = 0.32\nsamples = 10\nvalue = [8, 2]"] ;
423 -> 424 ;
425 [label="X[1] <= 19.1\ngini = 0.48\nsamples = 5\nvalue = [3, 2]"] ;
424 -> 425 ;
426 [label="gini = 0.0\nsamples = 2\nvalue = [2, 0]"] ;
425 -> 426 ;
427 [label="X[17] <= 11.15\ngini = 0.444\nsamples = 3\nvalue = [1, 2]"] ;
425 -> 427 ;
428 [label="gini = 0.0\nsamples = 1\nvalue = [1, 0]"] ;
427 -> 428 ;
429 [label="gini = 0.0\nsamples = 2\nvalue = [0, 2]"] ;
427 -> 429 ;
430 [label="gini = 0.0\nsamples = 5\nvalue = [5, 0]"] ;
424 -> 430 ;
431 [label="X[9] <= 15.5\ngini = 0.32\nsamples = 10\nvalue = [2, 8]"] ;
423 -> 431 ;
432 [label="gini = 0.0\nsamples = 7\nvalue = [0, 7]"] ;
431 -> 432 ;
433 [label="X[0] <= 18.85\ngini = 0.444\nsamples = 3\nvalue = [2, 1]"] ;
431 -> 433 ;
434 [label="gini = 0.0\nsamples = 2\nvalue = [2, 0]"] ;
433 -> 434 ;
435 [label="gini = 0.0\nsamples = 1\nvalue = [0, 1]"] ;
433 -> 435 ;
436 [label="gini = 0.0\nsamples = 4\nvalue = [4, 0]"] ;
418 -> 436 ;
437 [label="X[13] <= 1019.05\ngini = 0.351\nsamples = 132\nvalue = [102, 30]"] ;
411 -> 437 ;
438 [label="X[0] <= 15.45\ngini = 0.338\nsamples = 130\nvalue = [102, 28]"] ;
437 -> 438 ;
439 [label="X[11] <= 79.5\ngini = 0.145\nsamples = 51\nvalue = [47, 4]"] ;
438 -> 439 ;
440 [label="X[11] <= 78.5\ngini = 0.266\nsamples = 19\nvalue = [16, 3]"] ;
439 -> 440 ;
441 [label="X[15] <= 7.5\ngini = 0.198\nsamples = 18\nvalue = [16, 2]"] ;
440 -> 441 ;
442 [label="X[15] <= 4.5\ngini = 0.117\nsamples = 16\nvalue = [15, 1]"] ;
441 -> 442 ;
443 [label="X[9] <= 3.0\ngini = 0.375\nsamples = 4\nvalue = [3, 1]"] ;
442 -> 443 ;
444 [label="gini = 0.0\nsamples = 3\nvalue = [3, 0]"] ;
443 -> 444 ;
445 [label="gini = 0.0\nsamples = 1\nvalue = [0, 1]"] ;
443 -> 445 ;
446 [label="gini = 0.0\nsamples = 12\nvalue = [12, 0]"] ;
442 -> 446 ;
447 [label="X[0] <= 10.9\ngini = 0.5\nsamples = 2\nvalue = [1, 1]"] ;
441 -> 447 ;
448 [label="gini = 0.0\nsamples = 1\nvalue = [1, 0]"] ;
447 -> 448 ;
449 [label="gini = 0.0\nsamples = 1\nvalue = [0, 1]"] ;
447 -> 449 ;
450 [label="gini = 0.0\nsamples = 1\nvalue = [0, 1]"] ;
440 -> 450 ;
451 [label="X[0] <= 13.35\ngini = 0.061\nsamples = 32\nvalue = [31, 1]"] ;
439 -> 451 ;
452 [label="gini = 0.0\nsamples = 22\nvalue = [22, 0]"] ;
451 -> 452 ;
453 [label="X[17] <= 15.75\ngini = 0.18\nsamples = 10\nvalue = [9, 1]"] ;
451 -> 453 ;
454 [label="gini = 0.0\nsamples = 1\nvalue = [0, 1]"] ;
453 -> 454 ;
455 [label="gini = 0.0\nsamples = 9\nvalue = [9, 0]"] ;
453 -> 455 ;
456 [label="X[0] <= 17.3\ngini = 0.423\nsamples = 79\nvalue = [55, 24]"] ;
438 -> 456 ;
457 [label="X[11] <= 74.0\ngini = 0.486\nsamples = 12\nvalue = [5, 7]"] ;
456 -> 457 ;
458 [label="gini = 0.0\nsamples = 2\nvalue = [2, 0]"] ;
457 -> 458 ;
459 [label="X[9] <= 6.5\ngini = 0.42\nsamples = 10\nvalue = [3, 7]"] ;
457 -> 459 ;
460 [label="X[15] <= 4.5\ngini = 0.5\nsamples = 6\nvalue = [3, 3]"] ;
459 -> 460 ;
461 [label="gini = 0.0\nsamples = 1\nvalue = [1, 0]"] ;
460 -> 461 ;
462 [label="X[17] <= 19.7\ngini = 0.48\nsamples = 5\nvalue = [2, 3]"] ;
460 -> 462 ;
463 [label="X[15] <= 7.5\ngini = 0.444\nsamples = 3\nvalue = [2, 1]"] ;
462 -> 463 ;
464 [label="gini = 0.0\nsamples = 2\nvalue = [2, 0]"] ;
463 -> 464 ;
465 [label="gini = 0.0\nsamples = 1\nvalue = [0, 1]"] ;
463 -> 465 ;
466 [label="gini = 0.0\nsamples = 2\nvalue = [0, 2]"] ;
462 -> 466 ;
467 [label="gini = 0.0\nsamples = 4\nvalue = [0, 4]"] ;
459 -> 467 ;
468 [label="X[11] <= 90.5\ngini = 0.379\nsamples = 67\nvalue = [50, 17]"] ;
456 -> 468 ;
469 [label="X[0] <= 21.35\ngini = 0.335\nsamples = 61\nvalue = [48, 13]"] ;
468 -> 469 ;
470 [label="X[11] <= 68.5\ngini = 0.227\nsamples = 46\nvalue = [40, 6]"] ;
469 -> 470 ;
471 [label="gini = 0.0\nsamples = 1\nvalue = [0, 1]"] ;
470 -> 471 ;
472 [label="X[0] <= 18.45\ngini = 0.198\nsamples = 45\nvalue = [40, 5]"] ;
470 -> 472 ;
473 [label="X[1] <= 32.0\ngini = 0.375\nsamples = 16\nvalue = [12, 4]"] ;
472 -> 473 ;
474 [label="X[11] <= 76.0\ngini = 0.32\nsamples = 15\nvalue = [12, 3]"] ;
473 -> 474 ;
475 [label="X[7] <= 123.75\ngini = 0.49\nsamples = 7\nvalue = [4, 3]"] ;
474 -> 475 ;
476 [label="X[17] <= 24.25\ngini = 0.375\nsamples = 4\nvalue = [1, 3]"] ;
475 -> 476 ;
477 [label="gini = 0.0\nsamples = 3\nvalue = [0, 3]"] ;
476 -> 477 ;
478 [label="gini = 0.0\nsamples = 1\nvalue = [1, 0]"] ;
476 -> 478 ;
479 [label="gini = 0.0\nsamples = 3\nvalue = [3, 0]"] ;
475 -> 479 ;
480 [label="gini = 0.0\nsamples = 8\nvalue = [8, 0]"] ;
474 -> 480 ;
481 [label="gini = 0.0\nsamples = 1\nvalue = [0, 1]"] ;
473 -> 481 ;
482 [label="X[0] <= 20.45\ngini = 0.067\nsamples = 29\nvalue = [28, 1]"] ;
472 -> 482 ;
483 [label="gini = 0.0\nsamples = 22\nvalue = [22, 0]"] ;
482 -> 483 ;
484 [label="X[17] <= 22.45\ngini = 0.245\nsamples = 7\nvalue = [6, 1]"] ;
482 -> 484 ;
485 [label="gini = 0.0\nsamples = 1\nvalue = [0, 1]"] ;
484 -> 485 ;
486 [label="gini = 0.0\nsamples = 6\nvalue = [6, 0]"] ;
484 -> 486 ;
487 [label="X[1] <= 31.0\ngini = 0.498\nsamples = 15\nvalue = [8, 7]"] ;
469 -> 487 ;
488 [label="X[0] <= 22.9\ngini = 0.42\nsamples = 10\nvalue = [3, 7]"] ;
487 -> 488 ;
489 [label="X[1] <= 30.25\ngini = 0.219\nsamples = 8\nvalue = [1, 7]"] ;
488 -> 489 ;
490 [label="gini = 0.0\nsamples = 6\nvalue = [0, 6]"] ;
489 -> 490 ;
491 [label="X[15] <= 5.0\ngini = 0.5\nsamples = 2\nvalue = [1, 1]"] ;
489 -> 491 ;
492 [label="gini = 0.0\nsamples = 1\nvalue = [0, 1]"] ;
491 -> 492 ;
493 [label="gini = 0.0\nsamples = 1\nvalue = [1, 0]"] ;
491 -> 493 ;
494 [label="gini = 0.0\nsamples = 2\nvalue = [2, 0]"] ;
488 -> 494 ;
495 [label="gini = 0.0\nsamples = 5\nvalue = [5, 0]"] ;
487 -> 495 ;
496 [label="X[2] <= 0.1\ngini = 0.444\nsamples = 6\nvalue = [2, 4]"] ;
468 -> 496 ;
497 [label="gini = 0.0\nsamples = 2\nvalue = [2, 0]"] ;
496 -> 497 ;
498 [label="gini = 0.0\nsamples = 4\nvalue = [0, 4]"] ;
496 -> 498 ;
499 [label="gini = 0.0\nsamples = 2\nvalue = [0, 2]"] ;
437 -> 499 ;
500 [label="X[17] <= 17.1\ngini = 0.499\nsamples = 163\nvalue = [85, 78]"] ;
408 -> 500 ;
501 [label="X[4] <= 7.55\ngini = 0.213\nsamples = 33\nvalue = [4, 29]"] ;
500 -> 501 ;
502 [label="X[2] <= 0.5\ngini = 0.17\nsamples = 32\nvalue = [3, 29]"] ;
501 -> 502 ;
503 [label="gini = 0.0\nsamples = 23\nvalue = [0, 23]"] ;
502 -> 503 ;
504 [label="X[0] <= 10.25\ngini = 0.444\nsamples = 9\nvalue = [3, 6]"] ;
502 -> 504 ;
505 [label="gini = 0.0\nsamples = 5\nvalue = [0, 5]"] ;
504 -> 505 ;
506 [label="X[19] <= 0.5\ngini = 0.375\nsamples = 4\nvalue = [3, 1]"] ;
504 -> 506 ;
507 [label="gini = 0.0\nsamples = 3\nvalue = [3, 0]"] ;
506 -> 507 ;
508 [label="gini = 0.0\nsamples = 1\nvalue = [0, 1]"] ;
506 -> 508 ;
509 [label="gini = 0.0\nsamples = 1\nvalue = [1, 0]"] ;
501 -> 509 ;
510 [label="X[14] <= 1006.25\ngini = 0.47\nsamples = 130\nvalue = [81, 49]"] ;
500 -> 510 ;
511 [label="X[7] <= 281.25\ngini = 0.492\nsamples = 48\nvalue = [21, 27]"] ;
510 -> 511 ;
512 [label="X[3] <= 6.8\ngini = 0.375\nsamples = 28\nvalue = [7, 21]"] ;
511 -> 512 ;
513 [label="X[4] <= 6.6\ngini = 0.188\nsamples = 19\nvalue = [2, 17]"] ;
512 -> 513 ;
514 [label="X[13] <= 1009.75\ngini = 0.105\nsamples = 18\nvalue = [1, 17]"] ;
513 -> 514 ;
515 [label="gini = 0.0\nsamples = 17\nvalue = [0, 17]"] ;
514 -> 515 ;
516 [label="gini = 0.0\nsamples = 1\nvalue = [1, 0]"] ;
514 -> 516 ;
517 [label="gini = 0.0\nsamples = 1\nvalue = [1, 0]"] ;
513 -> 517 ;
518 [label="X[11] <= 75.0\ngini = 0.494\nsamples = 9\nvalue = [5, 4]"] ;
512 -> 518 ;
519 [label="gini = 0.0\nsamples = 3\nvalue = [0, 3]"] ;
518 -> 519 ;
520 [label="X[11] <= 85.0\ngini = 0.278\nsamples = 6\nvalue = [5, 1]"] ;
518 -> 520 ;
521 [label="gini = 0.0\nsamples = 5\nvalue = [5, 0]"] ;
520 -> 521 ;
522 [label="gini = 0.0\nsamples = 1\nvalue = [0, 1]"] ;
520 -> 522 ;
523 [label="X[3] <= 4.5\ngini = 0.42\nsamples = 20\nvalue = [14, 6]"] ;
511 -> 523 ;
524 [label="X[2] <= 0.1\ngini = 0.5\nsamples = 12\nvalue = [6, 6]"] ;
523 -> 524 ;
525 [label="X[14] <= 1005.15\ngini = 0.375\nsamples = 8\nvalue = [6, 2]"] ;
524 -> 525 ;
526 [label="gini = 0.0\nsamples = 5\nvalue = [5, 0]"] ;
525 -> 526 ;
527 [label="X[11] <= 76.5\ngini = 0.444\nsamples = 3\nvalue = [1, 2]"] ;
525 -> 527 ;
528 [label="gini = 0.0\nsamples = 1\nvalue = [1, 0]"] ;
527 -> 528 ;
529 [label="gini = 0.0\nsamples = 2\nvalue = [0, 2]"] ;
527 -> 529 ;
530 [label="gini = 0.0\nsamples = 4\nvalue = [0, 4]"] ;
524 -> 530 ;
531 [label="gini = 0.0\nsamples = 8\nvalue = [8, 0]"] ;
523 -> 531 ;
532 [label="X[7] <= 236.25\ngini = 0.393\nsamples = 82\nvalue = [60, 22]"] ;
510 -> 532 ;
533 [label="X[3] <= 9.3\ngini = 0.265\nsamples = 51\nvalue = [43, 8]"] ;
532 -> 533 ;
534 [label="X[4] <= 9.9\ngini = 0.19\nsamples = 47\nvalue = [42, 5]"] ;
533 -> 534 ;
535 [label="X[3] <= 1.8\ngini = 0.159\nsamples = 46\nvalue = [42, 4]"] ;
534 -> 535 ;
536 [label="X[1] <= 24.15\ngini = 0.426\nsamples = 13\nvalue = [9, 4]"] ;
535 -> 536 ;
537 [label="X[1] <= 18.85\ngini = 0.18\nsamples = 10\nvalue = [9, 1]"] ;
536 -> 537 ;
538 [label="gini = 0.0\nsamples = 1\nvalue = [0, 1]"] ;
537 -> 538 ;
539 [label="gini = 0.0\nsamples = 9\nvalue = [9, 0]"] ;
537 -> 539 ;
540 [label="gini = 0.0\nsamples = 3\nvalue = [0, 3]"] ;
536 -> 540 ;
541 [label="gini = 0.0\nsamples = 33\nvalue = [33, 0]"] ;
535 -> 541 ;
542 [label="gini = 0.0\nsamples = 1\nvalue = [0, 1]"] ;
534 -> 542 ;
543 [label="X[15] <= 4.5\ngini = 0.375\nsamples = 4\nvalue = [1, 3]"] ;
533 -> 543 ;
544 [label="gini = 0.0\nsamples = 1\nvalue = [1, 0]"] ;
543 -> 544 ;
545 [label="gini = 0.0\nsamples = 3\nvalue = [0, 3]"] ;
543 -> 545 ;
546 [label="X[5] <= 146.25\ngini = 0.495\nsamples = 31\nvalue = [17, 14]"] ;
532 -> 546 ;
547 [label="X[3] <= 7.9\ngini = 0.444\nsamples = 18\nvalue = [6, 12]"] ;
546 -> 547 ;
548 [label="X[3] <= 3.6\ngini = 0.26\nsamples = 13\nvalue = [2, 11]"] ;
547 -> 548 ;
549 [label="X[1] <= 20.1\ngini = 0.444\nsamples = 3\nvalue = [2, 1]"] ;
548 -> 549 ;
550 [label="gini = 0.0\nsamples = 1\nvalue = [0, 1]"] ;
549 -> 550 ;
551 [label="gini = 0.0\nsamples = 2\nvalue = [2, 0]"] ;
549 -> 551 ;
552 [label="gini = 0.0\nsamples = 10\nvalue = [0, 10]"] ;
548 -> 552 ;
553 [label="X[17] <= 29.95\ngini = 0.32\nsamples = 5\nvalue = [4, 1]"] ;
547 -> 553 ;
554 [label="gini = 0.0\nsamples = 4\nvalue = [4, 0]"] ;
553 -> 554 ;
555 [label="gini = 0.0\nsamples = 1\nvalue = [0, 1]"] ;
553 -> 555 ;
556 [label="X[15] <= 3.5\ngini = 0.26\nsamples = 13\nvalue = [11, 2]"] ;
546 -> 556 ;
557 [label="gini = 0.0\nsamples = 1\nvalue = [0, 1]"] ;
556 -> 557 ;
558 [label="X[9] <= 8.0\ngini = 0.153\nsamples = 12\nvalue = [11, 1]"] ;
556 -> 558 ;
559 [label="X[6] <= 32.5\ngini = 0.444\nsamples = 3\nvalue = [2, 1]"] ;
558 -> 559 ;
560 [label="gini = 0.0\nsamples = 2\nvalue = [2, 0]"] ;
559 -> 560 ;
561 [label="gini = 0.0\nsamples = 1\nvalue = [0, 1]"] ;
559 -> 561 ;
562 [label="gini = 0.0\nsamples = 9\nvalue = [9, 0]"] ;
558 -> 562 ;
563 [label="X[1] <= 16.9\ngini = 0.24\nsamples = 237\nvalue = [204, 33]"] ;
335 -> 563 ;
564 [label="X[13] <= 1026.45\ngini = 0.449\nsamples = 47\nvalue = [31, 16]"] ;
563 -> 564 ;
565 [label="X[1] <= 15.3\ngini = 0.497\nsamples = 24\nvalue = [11, 13]"] ;
564 -> 565 ;
566 [label="X[13] <= 1026.15\ngini = 0.444\nsamples = 12\nvalue = [8, 4]"] ;
565 -> 566 ;
567 [label="X[0] <= 8.9\ngini = 0.32\nsamples = 10\nvalue = [8, 2]"] ;
566 -> 567 ;
568 [label="X[1] <= 5.25\ngini = 0.444\nsamples = 3\nvalue = [1, 2]"] ;
567 -> 568 ;
569 [label="gini = 0.0\nsamples = 1\nvalue = [1, 0]"] ;
568 -> 569 ;
570 [label="gini = 0.0\nsamples = 2\nvalue = [0, 2]"] ;
568 -> 570 ;
571 [label="gini = 0.0\nsamples = 7\nvalue = [7, 0]"] ;
567 -> 571 ;
572 [label="gini = 0.0\nsamples = 2\nvalue = [0, 2]"] ;
566 -> 572 ;
573 [label="X[11] <= 73.5\ngini = 0.375\nsamples = 12\nvalue = [3, 9]"] ;
565 -> 573 ;
574 [label="X[1] <= 15.7\ngini = 0.375\nsamples = 4\nvalue = [3, 1]"] ;
573 -> 574 ;
575 [label="gini = 0.0\nsamples = 1\nvalue = [0, 1]"] ;
574 -> 575 ;
576 [label="gini = 0.0\nsamples = 3\nvalue = [3, 0]"] ;
574 -> 576 ;
577 [label="gini = 0.0\nsamples = 8\nvalue = [0, 8]"] ;
573 -> 577 ;
578 [label="X[14] <= 1030.35\ngini = 0.227\nsamples = 23\nvalue = [20, 3]"] ;
564 -> 578 ;
579 [label="gini = 0.0\nsamples = 19\nvalue = [19, 0]"] ;
578 -> 579 ;
580 [label="X[17] <= 12.0\ngini = 0.375\nsamples = 4\nvalue = [1, 3]"] ;
578 -> 580 ;
581 [label="gini = 0.0\nsamples = 3\nvalue = [0, 3]"] ;
580 -> 581 ;
582 [label="gini = 0.0\nsamples = 1\nvalue = [1, 0]"] ;
580 -> 582 ;
583 [label="X[11] <= 95.5\ngini = 0.163\nsamples = 190\nvalue = [173, 17]"] ;
563 -> 583 ;
584 [label="X[0] <= 21.25\ngini = 0.134\nsamples = 180\nvalue = [167, 13]"] ;
583 -> 584 ;
585 [label="X[10] <= 27.0\ngini = 0.125\nsamples = 179\nvalue = [167, 12]"] ;
584 -> 585 ;
586 [label="X[17] <= 4.7\ngini = 0.116\nsamples = 178\nvalue = [167, 11]"] ;
585 -> 586 ;
587 [label="gini = 0.0\nsamples = 1\nvalue = [0, 1]"] ;
586 -> 587 ;
588 [label="X[14] <= 1024.9\ngini = 0.107\nsamples = 177\nvalue = [167, 10]"] ;
586 -> 588 ;
589 [label="X[2] <= 0.55\ngini = 0.074\nsamples = 156\nvalue = [150, 6]"] ;
588 -> 589 ;
590 [label="X[7] <= 326.25\ngini = 0.045\nsamples = 131\nvalue = [128, 3]"] ;
589 -> 590 ;
591 [label="X[9] <= 1.0\ngini = 0.031\nsamples = 129\nvalue = [127, 2]"] ;
590 -> 591 ;
592 [label="X[0] <= 14.2\ngini = 0.375\nsamples = 4\nvalue = [3, 1]"] ;
591 -> 592 ;
593 [label="gini = 0.0\nsamples = 3\nvalue = [3, 0]"] ;
592 -> 593 ;
594 [label="gini = 0.0\nsamples = 1\nvalue = [0, 1]"] ;
592 -> 594 ;
595 [label="X[1] <= 19.25\ngini = 0.016\nsamples = 125\nvalue = [124, 1]"] ;
591 -> 595 ;
596 [label="X[17] <= 17.95\ngini = 0.087\nsamples = 22\nvalue = [21, 1]"] ;
595 -> 596 ;
597 [label="gini = 0.0\nsamples = 21\nvalue = [21, 0]"] ;
596 -> 597 ;
598 [label="gini = 0.0\nsamples = 1\nvalue = [0, 1]"] ;
596 -> 598 ;
599 [label="gini = 0.0\nsamples = 103\nvalue = [103, 0]"] ;
595 -> 599 ;
600 [label="X[0] <= 4.95\ngini = 0.5\nsamples = 2\nvalue = [1, 1]"] ;
590 -> 600 ;
601 [label="gini = 0.0\nsamples = 1\nvalue = [0, 1]"] ;
600 -> 601 ;
602 [label="gini = 0.0\nsamples = 1\nvalue = [1, 0]"] ;
600 -> 602 ;
603 [label="X[4] <= 0.6\ngini = 0.211\nsamples = 25\nvalue = [22, 3]"] ;
589 -> 603 ;
604 [label="gini = 0.0\nsamples = 16\nvalue = [16, 0]"] ;
603 -> 604 ;
605 [label="X[4] <= 2.85\ngini = 0.444\nsamples = 9\nvalue = [6, 3]"] ;
603 -> 605 ;
606 [label="X[0] <= 13.65\ngini = 0.375\nsamples = 4\nvalue = [1, 3]"] ;
605 -> 606 ;
607 [label="gini = 0.0\nsamples = 1\nvalue = [1, 0]"] ;
606 -> 607 ;
608 [label="gini = 0.0\nsamples = 3\nvalue = [0, 3]"] ;
606 -> 608 ;
609 [label="gini = 0.0\nsamples = 5\nvalue = [5, 0]"] ;
605 -> 609 ;
610 [label="X[13] <= 1028.0\ngini = 0.308\nsamples = 21\nvalue = [17, 4]"] ;
588 -> 610 ;
611 [label="X[15] <= 7.5\ngini = 0.444\nsamples = 6\nvalue = [2, 4]"] ;
610 -> 611 ;
612 [label="gini = 0.0\nsamples = 4\nvalue = [0, 4]"] ;
611 -> 612 ;
613 [label="gini = 0.0\nsamples = 2\nvalue = [2, 0]"] ;
611 -> 613 ;
614 [label="gini = 0.0\nsamples = 15\nvalue = [15, 0]"] ;
610 -> 614 ;
615 [label="gini = 0.0\nsamples = 1\nvalue = [0, 1]"] ;
585 -> 615 ;
616 [label="gini = 0.0\nsamples = 1\nvalue = [0, 1]"] ;
584 -> 616 ;
617 [label="X[13] <= 1022.75\ngini = 0.48\nsamples = 10\nvalue = [6, 4]"] ;
583 -> 617 ;
618 [label="X[11] <= 96.5\ngini = 0.245\nsamples = 7\nvalue = [6, 1]"] ;
617 -> 618 ;
619 [label="X[1] <= 20.2\ngini = 0.5\nsamples = 2\nvalue = [1, 1]"] ;
618 -> 619 ;
620 [label="gini = 0.0\nsamples = 1\nvalue = [0, 1]"] ;
619 -> 620 ;
621 [label="gini = 0.0\nsamples = 1\nvalue = [1, 0]"] ;
619 -> 621 ;
622 [label="gini = 0.0\nsamples = 5\nvalue = [5, 0]"] ;
618 -> 622 ;
623 [label="gini = 0.0\nsamples = 3\nvalue = [0, 3]"] ;
617 -> 623 ;
624 [label="X[2] <= 6.05\ngini = 0.492\nsamples = 491\nvalue = [215, 276]"] ;
4 -> 624 ;
625 [label="X[14] <= 1017.55\ngini = 0.491\nsamples = 198\nvalue = [112, 86]"] ;
624 -> 625 ;
626 [label="X[17] <= 16.6\ngini = 0.499\nsamples = 143\nvalue = [69, 74]"] ;
625 -> 626 ;
627 [label="X[14] <= 496.7\ngini = 0.439\nsamples = 86\nvalue = [28, 58]"] ;
626 -> 627 ;
628 [label="X[0] <= 11.3\ngini = 0.5\nsamples = 41\nvalue = [21, 20]"] ;
627 -> 628 ;
629 [label="X[5] <= 303.75\ngini = 0.478\nsamples = 33\nvalue = [20, 13]"] ;
628 -> 629 ;
630 [label="X[8] <= 45.0\ngini = 0.428\nsamples = 29\nvalue = [20, 9]"] ;
629 -> 630 ;
631 [label="X[1] <= 17.7\ngini = 0.469\nsamples = 24\nvalue = [15, 9]"] ;
630 -> 631 ;
632 [label="X[13] <= 505.0\ngini = 0.444\nsamples = 9\nvalue = [3, 6]"] ;
631 -> 632 ;
633 [label="X[2] <= 2.9\ngini = 0.245\nsamples = 7\nvalue = [1, 6]"] ;
632 -> 633 ;
634 [label="gini = 0.0\nsamples = 1\nvalue = [1, 0]"] ;
633 -> 634 ;
635 [label="gini = 0.0\nsamples = 6\nvalue = [0, 6]"] ;
633 -> 635 ;
636 [label="gini = 0.0\nsamples = 2\nvalue = [2, 0]"] ;
632 -> 636 ;
637 [label="X[2] <= 2.5\ngini = 0.32\nsamples = 15\nvalue = [12, 3]"] ;
631 -> 637 ;
638 [label="gini = 0.0\nsamples = 1\nvalue = [0, 1]"] ;
637 -> 638 ;
639 [label="X[2] <= 3.6\ngini = 0.245\nsamples = 14\nvalue = [12, 2]"] ;
637 -> 639 ;
640 [label="gini = 0.0\nsamples = 5\nvalue = [5, 0]"] ;
639 -> 640 ;
641 [label="X[17] <= 12.95\ngini = 0.346\nsamples = 9\nvalue = [7, 2]"] ;
639 -> 641 ;
642 [label="X[0] <= 9.35\ngini = 0.444\nsamples = 6\nvalue = [4, 2]"] ;
641 -> 642 ;
643 [label="X[2] <= 4.0\ngini = 0.32\nsamples = 5\nvalue = [4, 1]"] ;
642 -> 643 ;
644 [label="gini = 0.0\nsamples = 1\nvalue = [0, 1]"] ;
643 -> 644 ;
645 [label="gini = 0.0\nsamples = 4\nvalue = [4, 0]"] ;
643 -> 645 ;
646 [label="gini = 0.0\nsamples = 1\nvalue = [0, 1]"] ;
642 -> 646 ;
647 [label="gini = 0.0\nsamples = 3\nvalue = [3, 0]"] ;
641 -> 647 ;
648 [label="gini = 0.0\nsamples = 5\nvalue = [5, 0]"] ;
630 -> 648 ;
649 [label="gini = 0.0\nsamples = 4\nvalue = [0, 4]"] ;
629 -> 649 ;
650 [label="X[4] <= 3.7\ngini = 0.219\nsamples = 8\nvalue = [1, 7]"] ;
628 -> 650 ;
651 [label="gini = 0.0\nsamples = 7\nvalue = [0, 7]"] ;
650 -> 651 ;
652 [label="gini = 0.0\nsamples = 1\nvalue = [1, 0]"] ;
650 -> 652 ;
653 [label="X[0] <= 13.45\ngini = 0.263\nsamples = 45\nvalue = [7, 38]"] ;
627 -> 653 ;
654 [label="X[16] <= 3.5\ngini = 0.172\nsamples = 42\nvalue = [4, 38]"] ;
653 -> 654 ;
655 [label="X[1] <= 21.65\ngini = 0.095\nsamples = 40\nvalue = [2, 38]"] ;
654 -> 655 ;
656 [label="X[15] <= 6.5\ngini = 0.051\nsamples = 38\nvalue = [1, 37]"] ;
655 -> 656 ;
657 [label="gini = 0.0\nsamples = 31\nvalue = [0, 31]"] ;
656 -> 657 ;
658 [label="X[11] <= 80.0\ngini = 0.245\nsamples = 7\nvalue = [1, 6]"] ;
656 -> 658 ;
659 [label="gini = 0.0\nsamples = 1\nvalue = [1, 0]"] ;
658 -> 659 ;
660 [label="gini = 0.0\nsamples = 6\nvalue = [0, 6]"] ;
658 -> 660 ;
661 [label="X[13] <= 1015.4\ngini = 0.5\nsamples = 2\nvalue = [1, 1]"] ;
655 -> 661 ;
662 [label="gini = 0.0\nsamples = 1\nvalue = [0, 1]"] ;
661 -> 662 ;
663 [label="gini = 0.0\nsamples = 1\nvalue = [1, 0]"] ;
661 -> 663 ;
664 [label="gini = 0.0\nsamples = 2\nvalue = [2, 0]"] ;
654 -> 664 ;
665 [label="gini = 0.0\nsamples = 3\nvalue = [3, 0]"] ;
653 -> 665 ;
666 [label="X[11] <= 95.5\ngini = 0.404\nsamples = 57\nvalue = [41, 16]"] ;
626 -> 666 ;
667 [label="X[8] <= 247.5\ngini = 0.35\nsamples = 53\nvalue = [41, 12]"] ;
666 -> 667 ;
668 [label="X[2] <= 5.5\ngini = 0.287\nsamples = 46\nvalue = [38, 8]"] ;
667 -> 668 ;
669 [label="X[3] <= 0.9\ngini = 0.188\nsamples = 38\nvalue = [34, 4]"] ;
668 -> 669 ;
670 [label="X[7] <= 236.25\ngini = 0.32\nsamples = 20\nvalue = [16, 4]"] ;
669 -> 670 ;
671 [label="X[0] <= 17.9\ngini = 0.219\nsamples = 16\nvalue = [14, 2]"] ;
670 -> 671 ;
672 [label="gini = 0.0\nsamples = 12\nvalue = [12, 0]"] ;
671 -> 672 ;
673 [label="X[17] <= 21.95\ngini = 0.5\nsamples = 4\nvalue = [2, 2]"] ;
671 -> 673 ;
674 [label="gini = 0.0\nsamples = 2\nvalue = [0, 2]"] ;
673 -> 674 ;
675 [label="gini = 0.0\nsamples = 2\nvalue = [2, 0]"] ;
673 -> 675 ;
676 [label="X[0] <= 14.3\ngini = 0.5\nsamples = 4\nvalue = [2, 2]"] ;
670 -> 676 ;
677 [label="gini = 0.0\nsamples = 2\nvalue = [0, 2]"] ;
676 -> 677 ;
678 [label="gini = 0.0\nsamples = 2\nvalue = [2, 0]"] ;
676 -> 678 ;
679 [label="gini = 0.0\nsamples = 18\nvalue = [18, 0]"] ;
669 -> 679 ;
680 [label="X[2] <= 5.9\ngini = 0.5\nsamples = 8\nvalue = [4, 4]"] ;
668 -> 680 ;
681 [label="gini = 0.0\nsamples = 4\nvalue = [0, 4]"] ;
680 -> 681 ;
682 [label="gini = 0.0\nsamples = 4\nvalue = [4, 0]"] ;
680 -> 682 ;
683 [label="X[6] <= 33.5\ngini = 0.49\nsamples = 7\nvalue = [3, 4]"] ;
667 -> 683 ;
684 [label="gini = 0.0\nsamples = 3\nvalue = [3, 0]"] ;
683 -> 684 ;
685 [label="gini = 0.0\nsamples = 4\nvalue = [0, 4]"] ;
683 -> 685 ;
686 [label="gini = 0.0\nsamples = 4\nvalue = [0, 4]"] ;
666 -> 686 ;
687 [label="X[8] <= 213.75\ngini = 0.341\nsamples = 55\nvalue = [43, 12]"] ;
625 -> 687 ;
688 [label="X[0] <= 15.5\ngini = 0.21\nsamples = 42\nvalue = [37, 5]"] ;
687 -> 688 ;
689 [label="X[14] <= 1029.7\ngini = 0.176\nsamples = 41\nvalue = [37, 4]"] ;
688 -> 689 ;
690 [label="X[17] <= 9.8\ngini = 0.102\nsamples = 37\nvalue = [35, 2]"] ;
689 -> 690 ;
691 [label="X[17] <= 9.15\ngini = 0.375\nsamples = 8\nvalue = [6, 2]"] ;
690 -> 691 ;
692 [label="gini = 0.0\nsamples = 6\nvalue = [6, 0]"] ;
691 -> 692 ;
693 [label="gini = 0.0\nsamples = 2\nvalue = [0, 2]"] ;
691 -> 693 ;
694 [label="gini = 0.0\nsamples = 29\nvalue = [29, 0]"] ;
690 -> 694 ;
695 [label="X[4] <= 3.0\ngini = 0.5\nsamples = 4\nvalue = [2, 2]"] ;
689 -> 695 ;
696 [label="gini = 0.0\nsamples = 2\nvalue = [2, 0]"] ;
695 -> 696 ;
697 [label="gini = 0.0\nsamples = 2\nvalue = [0, 2]"] ;
695 -> 697 ;
698 [label="gini = 0.0\nsamples = 1\nvalue = [0, 1]"] ;
688 -> 698 ;
699 [label="X[14] <= 1020.7\ngini = 0.497\nsamples = 13\nvalue = [6, 7]"] ;
687 -> 699 ;
700 [label="gini = 0.0\nsamples = 3\nvalue = [3, 0]"] ;
699 -> 700 ;
701 [label="X[17] <= 6.5\ngini = 0.42\nsamples = 10\nvalue = [3, 7]"] ;
699 -> 701 ;
702 [label="gini = 0.0\nsamples = 2\nvalue = [2, 0]"] ;
701 -> 702 ;
703 [label="X[9] <= 1.0\ngini = 0.219\nsamples = 8\nvalue = [1, 7]"] ;
701 -> 703 ;
704 [label="gini = 0.0\nsamples = 1\nvalue = [1, 0]"] ;
703 -> 704 ;
705 [label="gini = 0.0\nsamples = 7\nvalue = [0, 7]"] ;
703 -> 705 ;
706 [label="X[4] <= 7.75\ngini = 0.456\nsamples = 293\nvalue = [103, 190]"] ;
624 -> 706 ;
707 [label="X[1] <= 33.35\ngini = 0.444\nsamples = 285\nvalue = [95, 190]"] ;
706 -> 707 ;
708 [label="X[11] <= 85.5\ngini = 0.416\nsamples = 254\nvalue = [75, 179]"] ;
707 -> 708 ;
709 [label="X[6] <= 23.0\ngini = 0.469\nsamples = 144\nvalue = [54, 90]"] ;
708 -> 709 ;
710 [label="X[3] <= 4.3\ngini = 0.5\nsamples = 67\nvalue = [34, 33]"] ;
709 -> 710 ;
711 [label="X[1] <= 17.0\ngini = 0.496\nsamples = 59\nvalue = [27, 32]"] ;
710 -> 711 ;
712 [label="X[2] <= 12.25\ngini = 0.426\nsamples = 26\nvalue = [8, 18]"] ;
711 -> 712 ;
713 [label="X[11] <= 81.5\ngini = 0.133\nsamples = 14\nvalue = [1, 13]"] ;
712 -> 713 ;
714 [label="gini = 0.0\nsamples = 12\nvalue = [0, 12]"] ;
713 -> 714 ;
715 [label="X[0] <= 8.85\ngini = 0.5\nsamples = 2\nvalue = [1, 1]"] ;
713 -> 715 ;
716 [label="gini = 0.0\nsamples = 1\nvalue = [0, 1]"] ;
715 -> 716 ;
717 [label="gini = 0.0\nsamples = 1\nvalue = [1, 0]"] ;
715 -> 717 ;
718 [label="X[1] <= 15.05\ngini = 0.486\nsamples = 12\nvalue = [7, 5]"] ;
712 -> 718 ;
719 [label="X[11] <= 27.0\ngini = 0.346\nsamples = 9\nvalue = [7, 2]"] ;
718 -> 719 ;
720 [label="X[2] <= 18.7\ngini = 0.5\nsamples = 4\nvalue = [2, 2]"] ;
719 -> 720 ;
721 [label="gini = 0.0\nsamples = 1\nvalue = [0, 1]"] ;
720 -> 721 ;
722 [label="X[2] <= 23.6\ngini = 0.444\nsamples = 3\nvalue = [2, 1]"] ;
720 -> 722 ;
723 [label="gini = 0.0\nsamples = 2\nvalue = [2, 0]"] ;
722 -> 723 ;
724 [label="gini = 0.0\nsamples = 1\nvalue = [0, 1]"] ;
722 -> 724 ;
725 [label="gini = 0.0\nsamples = 5\nvalue = [5, 0]"] ;
719 -> 725 ;
726 [label="gini = 0.0\nsamples = 3\nvalue = [0, 3]"] ;
718 -> 726 ;
727 [label="X[2] <= 10.75\ngini = 0.489\nsamples = 33\nvalue = [19, 14]"] ;
711 -> 727 ;
728 [label="X[1] <= 28.75\ngini = 0.26\nsamples = 13\nvalue = [11, 2]"] ;
727 -> 728 ;
729 [label="X[15] <= 7.0\ngini = 0.153\nsamples = 12\nvalue = [11, 1]"] ;
728 -> 729 ;
730 [label="gini = 0.0\nsamples = 9\nvalue = [9, 0]"] ;
729 -> 730 ;
731 [label="X[2] <= 8.7\ngini = 0.444\nsamples = 3\nvalue = [2, 1]"] ;
729 -> 731 ;
732 [label="gini = 0.0\nsamples = 1\nvalue = [0, 1]"] ;
731 -> 732 ;
733 [label="gini = 0.0\nsamples = 2\nvalue = [2, 0]"] ;
731 -> 733 ;
734 [label="gini = 0.0\nsamples = 1\nvalue = [0, 1]"] ;
728 -> 734 ;
735 [label="X[9] <= 17.0\ngini = 0.48\nsamples = 20\nvalue = [8, 12]"] ;
727 -> 735 ;
736 [label="X[7] <= 180.0\ngini = 0.444\nsamples = 12\nvalue = [8, 4]"] ;
735 -> 736 ;
737 [label="X[1] <= 24.2\ngini = 0.5\nsamples = 8\nvalue = [4, 4]"] ;
736 -> 737 ;
738 [label="X[2] <= 11.8\ngini = 0.375\nsamples = 4\nvalue = [3, 1]"] ;
737 -> 738 ;
739 [label="gini = 0.0\nsamples = 1\nvalue = [0, 1]"] ;
738 -> 739 ;
740 [label="gini = 0.0\nsamples = 3\nvalue = [3, 0]"] ;
738 -> 740 ;
741 [label="X[0] <= 19.9\ngini = 0.375\nsamples = 4\nvalue = [1, 3]"] ;
737 -> 741 ;
742 [label="gini = 0.0\nsamples = 3\nvalue = [0, 3]"] ;
741 -> 742 ;
743 [label="gini = 0.0\nsamples = 1\nvalue = [1, 0]"] ;
741 -> 743 ;
744 [label="gini = 0.0\nsamples = 4\nvalue = [4, 0]"] ;
736 -> 744 ;
745 [label="gini = 0.0\nsamples = 8\nvalue = [0, 8]"] ;
735 -> 745 ;
746 [label="X[9] <= 53.0\ngini = 0.219\nsamples = 8\nvalue = [7, 1]"] ;
710 -> 746 ;
747 [label="gini = 0.0\nsamples = 7\nvalue = [7, 0]"] ;
746 -> 747 ;
748 [label="gini = 0.0\nsamples = 1\nvalue = [0, 1]"] ;
746 -> 748 ;
749 [label="X[18] <= 27.05\ngini = 0.385\nsamples = 77\nvalue = [20, 57]"] ;
709 -> 749 ;
750 [label="X[14] <= 1012.8\ngini = 0.354\nsamples = 74\nvalue = [17, 57]"] ;
749 -> 750 ;
751 [label="X[10] <= 3.0\ngini = 0.188\nsamples = 38\nvalue = [4, 34]"] ;
750 -> 751 ;
752 [label="X[0] <= 7.7\ngini = 0.48\nsamples = 5\nvalue = [3, 2]"] ;
751 -> 752 ;
753 [label="gini = 0.0\nsamples = 3\nvalue = [3, 0]"] ;
752 -> 753 ;
754 [label="gini = 0.0\nsamples = 2\nvalue = [0, 2]"] ;
752 -> 754 ;
755 [label="X[8] <= 281.25\ngini = 0.059\nsamples = 33\nvalue = [1, 32]"] ;
751 -> 755 ;
756 [label="gini = 0.0\nsamples = 27\nvalue = [0, 27]"] ;
755 -> 756 ;
757 [label="X[8] <= 303.75\ngini = 0.278\nsamples = 6\nvalue = [1, 5]"] ;
755 -> 757 ;
758 [label="X[10] <= 15.0\ngini = 0.5\nsamples = 2\nvalue = [1, 1]"] ;
757 -> 758 ;
759 [label="gini = 0.0\nsamples = 1\nvalue = [0, 1]"] ;
758 -> 759 ;
760 [label="gini = 0.0\nsamples = 1\nvalue = [1, 0]"] ;
758 -> 760 ;
761 [label="gini = 0.0\nsamples = 4\nvalue = [0, 4]"] ;
757 -> 761 ;
762 [label="X[6] <= 47.0\ngini = 0.461\nsamples = 36\nvalue = [13, 23]"] ;
750 -> 762 ;
763 [label="X[9] <= 16.0\ngini = 0.497\nsamples = 28\nvalue = [13, 15]"] ;
762 -> 763 ;
764 [label="X[18] <= 13.0\ngini = 0.444\nsamples = 21\nvalue = [7, 14]"] ;
763 -> 764 ;
765 [label="gini = 0.0\nsamples = 6\nvalue = [0, 6]"] ;
764 -> 765 ;
766 [label="X[2] <= 9.7\ngini = 0.498\nsamples = 15\nvalue = [7, 8]"] ;
764 -> 766 ;
767 [label="X[2] <= 7.3\ngini = 0.278\nsamples = 6\nvalue = [5, 1]"] ;
766 -> 767 ;
768 [label="gini = 0.0\nsamples = 1\nvalue = [0, 1]"] ;
767 -> 768 ;
769 [label="gini = 0.0\nsamples = 5\nvalue = [5, 0]"] ;
767 -> 769 ;
770 [label="X[2] <= 20.9\ngini = 0.346\nsamples = 9\nvalue = [2, 7]"] ;
766 -> 770 ;
771 [label="gini = 0.0\nsamples = 6\nvalue = [0, 6]"] ;
770 -> 771 ;
772 [label="X[17] <= 10.85\ngini = 0.444\nsamples = 3\nvalue = [2, 1]"] ;
770 -> 772 ;
773 [label="gini = 0.0\nsamples = 1\nvalue = [0, 1]"] ;
772 -> 773 ;
774 [label="gini = 0.0\nsamples = 2\nvalue = [2, 0]"] ;
772 -> 774 ;
775 [label="X[8] <= 258.75\ngini = 0.245\nsamples = 7\nvalue = [6, 1]"] ;
763 -> 775 ;
776 [label="gini = 0.0\nsamples = 6\nvalue = [6, 0]"] ;
775 -> 776 ;
777 [label="gini = 0.0\nsamples = 1\nvalue = [0, 1]"] ;
775 -> 777 ;
778 [label="gini = 0.0\nsamples = 8\nvalue = [0, 8]"] ;
762 -> 778 ;
779 [label="gini = 0.0\nsamples = 3\nvalue = [3, 0]"] ;
749 -> 779 ;
780 [label="X[1] <= 10.65\ngini = 0.309\nsamples = 110\nvalue = [21, 89]"] ;
708 -> 780 ;
781 [label="X[7] <= 112.5\ngini = 0.494\nsamples = 9\nvalue = [5, 4]"] ;
780 -> 781 ;
782 [label="gini = 0.0\nsamples = 4\nvalue = [4, 0]"] ;
781 -> 782 ;
783 [label="X[17] <= -0.2\ngini = 0.32\nsamples = 5\nvalue = [1, 4]"] ;
781 -> 783 ;
784 [label="gini = 0.0\nsamples = 1\nvalue = [1, 0]"] ;
783 -> 784 ;
785 [label="gini = 0.0\nsamples = 4\nvalue = [0, 4]"] ;
783 -> 785 ;
786 [label="X[3] <= 1.7\ngini = 0.267\nsamples = 101\nvalue = [16, 85]"] ;
780 -> 786 ;
787 [label="X[9] <= 17.0\ngini = 0.329\nsamples = 77\nvalue = [16, 61]"] ;
786 -> 787 ;
788 [label="X[14] <= 1025.1\ngini = 0.259\nsamples = 59\nvalue = [9, 50]"] ;
787 -> 788 ;
789 [label="X[2] <= 27.7\ngini = 0.238\nsamples = 58\nvalue = [8, 50]"] ;
788 -> 789 ;
790 [label="X[2] <= 25.7\ngini = 0.303\nsamples = 43\nvalue = [8, 35]"] ;
789 -> 790 ;
791 [label="X[1] <= 19.0\ngini = 0.278\nsamples = 42\nvalue = [7, 35]"] ;
790 -> 791 ;
792 [label="X[14] <= 1016.4\ngini = 0.1\nsamples = 19\nvalue = [1, 18]"] ;
791 -> 792 ;
793 [label="gini = 0.0\nsamples = 17\nvalue = [0, 17]"] ;
792 -> 793 ;
794 [label="X[11] <= 95.0\ngini = 0.5\nsamples = 2\nvalue = [1, 1]"] ;
792 -> 794 ;
795 [label="gini = 0.0\nsamples = 1\nvalue = [0, 1]"] ;
794 -> 795 ;
796 [label="gini = 0.0\nsamples = 1\nvalue = [1, 0]"] ;
794 -> 796 ;
797 [label="X[0] <= 13.6\ngini = 0.386\nsamples = 23\nvalue = [6, 17]"] ;
791 -> 797 ;
798 [label="X[17] <= 19.7\ngini = 0.444\nsamples = 6\nvalue = [4, 2]"] ;
797 -> 798 ;
799 [label="gini = 0.0\nsamples = 4\nvalue = [4, 0]"] ;
798 -> 799 ;
800 [label="gini = 0.0\nsamples = 2\nvalue = [0, 2]"] ;
798 -> 800 ;
801 [label="X[0] <= 16.35\ngini = 0.208\nsamples = 17\nvalue = [2, 15]"] ;
797 -> 801 ;
802 [label="X[9] <= 2.0\ngini = 0.408\nsamples = 7\nvalue = [2, 5]"] ;
801 -> 802 ;
803 [label="X[2] <= 15.6\ngini = 0.444\nsamples = 3\nvalue = [2, 1]"] ;
802 -> 803 ;
804 [label="gini = 0.0\nsamples = 2\nvalue = [2, 0]"] ;
803 -> 804 ;
805 [label="gini = 0.0\nsamples = 1\nvalue = [0, 1]"] ;
803 -> 805 ;
806 [label="gini = 0.0\nsamples = 4\nvalue = [0, 4]"] ;
802 -> 806 ;
807 [label="gini = 0.0\nsamples = 10\nvalue = [0, 10]"] ;
801 -> 807 ;
808 [label="gini = 0.0\nsamples = 1\nvalue = [1, 0]"] ;
790 -> 808 ;
809 [label="gini = 0.0\nsamples = 15\nvalue = [0, 15]"] ;
789 -> 809 ;
810 [label="gini = 0.0\nsamples = 1\nvalue = [1, 0]"] ;
788 -> 810 ;
811 [label="X[9] <= 27.0\ngini = 0.475\nsamples = 18\nvalue = [7, 11]"] ;
787 -> 811 ;
812 [label="X[7] <= 281.25\ngini = 0.375\nsamples = 8\nvalue = [6, 2]"] ;
811 -> 812 ;
813 [label="X[11] <= 87.0\ngini = 0.245\nsamples = 7\nvalue = [6, 1]"] ;
812 -> 813 ;
814 [label="gini = 0.0\nsamples = 1\nvalue = [0, 1]"] ;
813 -> 814 ;
815 [label="gini = 0.0\nsamples = 6\nvalue = [6, 0]"] ;
813 -> 815 ;
816 [label="gini = 0.0\nsamples = 1\nvalue = [0, 1]"] ;
812 -> 816 ;
817 [label="X[11] <= 88.0\ngini = 0.18\nsamples = 10\nvalue = [1, 9]"] ;
811 -> 817 ;
818 [label="X[2] <= 11.3\ngini = 0.5\nsamples = 2\nvalue = [1, 1]"] ;
817 -> 818 ;
819 [label="gini = 0.0\nsamples = 1\nvalue = [1, 0]"] ;
818 -> 819 ;
820 [label="gini = 0.0\nsamples = 1\nvalue = [0, 1]"] ;
818 -> 820 ;
821 [label="gini = 0.0\nsamples = 8\nvalue = [0, 8]"] ;
817 -> 821 ;
822 [label="gini = 0.0\nsamples = 24\nvalue = [0, 24]"] ;
786 -> 822 ;
823 [label="X[0] <= 24.15\ngini = 0.458\nsamples = 31\nvalue = [20, 11]"] ;
707 -> 823 ;
824 [label="X[2] <= 72.3\ngini = 0.188\nsamples = 19\nvalue = [17, 2]"] ;
823 -> 824 ;
825 [label="X[5] <= 11.25\ngini = 0.105\nsamples = 18\nvalue = [17, 1]"] ;
824 -> 825 ;
826 [label="X[3] <= 3.0\ngini = 0.5\nsamples = 2\nvalue = [1, 1]"] ;
825 -> 826 ;
827 [label="gini = 0.0\nsamples = 1\nvalue = [1, 0]"] ;
826 -> 827 ;
828 [label="gini = 0.0\nsamples = 1\nvalue = [0, 1]"] ;
826 -> 828 ;
829 [label="gini = 0.0\nsamples = 16\nvalue = [16, 0]"] ;
825 -> 829 ;
830 [label="gini = 0.0\nsamples = 1\nvalue = [0, 1]"] ;
824 -> 830 ;
831 [label="X[7] <= 202.5\ngini = 0.375\nsamples = 12\nvalue = [3, 9]"] ;
823 -> 831 ;
832 [label="X[17] <= 28.15\ngini = 0.375\nsamples = 4\nvalue = [3, 1]"] ;
831 -> 832 ;
833 [label="gini = 0.0\nsamples = 1\nvalue = [0, 1]"] ;
832 -> 833 ;
834 [label="gini = 0.0\nsamples = 3\nvalue = [3, 0]"] ;
832 -> 834 ;
835 [label="gini = 0.0\nsamples = 8\nvalue = [0, 8]"] ;
831 -> 835 ;
836 [label="gini = 0.0\nsamples = 8\nvalue = [8, 0]"] ;
706 -> 836 ;
837 [label="X[16] <= 4.5\ngini = 0.135\nsamples = 53882\nvalue = [49971, 3911]"] ;
3 -> 837 ;
838 [label="X[12] <= 42.5\ngini = 0.104\nsamples = 42174\nvalue = [39854, 2320]"] ;
837 -> 838 ;
839 [label="X[14] <= 1009.35\ngini = 0.067\nsamples = 25118\nvalue = [24241, 877]"] ;
838 -> 839 ;
840 [label="X[6] <= 43.5\ngini = 0.125\nsamples = 6416\nvalue = [5988, 428]"] ;
839 -> 840 ;
841 [label="X[13] <= 1013.65\ngini = 0.094\nsamples = 4366\nvalue = [4149, 217]"] ;
840 -> 841 ;
842 [label="X[12] <= 30.5\ngini = 0.089\nsamples = 4238\nvalue = [4040, 198]"] ;
841 -> 842 ;
843 [label="X[8] <= 11.25\ngini = 0.064\nsamples = 2130\nvalue = [2060, 70]"] ;
842 -> 843 ;
844 [label="X[2] <= 8.25\ngini = 0.165\nsamples = 220\nvalue = [200, 20]"] ;
843 -> 844 ;
845 [label="X[15] <= 1.5\ngini = 0.158\nsamples = 219\nvalue = [200, 19]"] ;
844 -> 845 ;
846 [label="X[0] <= -4.15\ngini = 0.134\nsamples = 194\nvalue = [180, 14]"] ;
845 -> 846 ;
847 [label="X[1] <= 14.9\ngini = 0.5\nsamples = 2\nvalue = [1, 1]"] ;
846 -> 847 ;
848 [label="gini = 0.0\nsamples = 1\nvalue = [1, 0]"] ;
847 -> 848 ;
849 [label="gini = 0.0\nsamples = 1\nvalue = [0, 1]"] ;
847 -> 849 ;
850 [label="X[17] <= 32.85\ngini = 0.126\nsamples = 192\nvalue = [179, 13]"] ;
846 -> 850 ;
851 [label="X[0] <= 16.15\ngini = 0.118\nsamples = 190\nvalue = [178, 12]"] ;
850 -> 851 ;
852 [label="X[0] <= 15.6\ngini = 0.162\nsamples = 135\nvalue = [123, 12]"] ;
851 -> 852 ;
853 [label="X[18] <= 37.65\ngini = 0.129\nsamples = 130\nvalue = [121, 9]"] ;
852 -> 853 ;
854 [label="X[10] <= 19.5\ngini = 0.106\nsamples = 125\nvalue = [118, 7]"] ;
853 -> 854 ;
855 [label="X[11] <= 54.5\ngini = 0.082\nsamples = 117\nvalue = [112, 5]"] ;
854 -> 855 ;
856 [label="gini = 0.0\nsamples = 62\nvalue = [62, 0]"] ;
855 -> 856 ;
857 [label="X[12] <= 7.5\ngini = 0.165\nsamples = 55\nvalue = [50, 5]"] ;
855 -> 857 ;
858 [label="gini = 0.0\nsamples = 1\nvalue = [0, 1]"] ;
857 -> 858 ;
859 [label="X[11] <= 55.5\ngini = 0.137\nsamples = 54\nvalue = [50, 4]"] ;
857 -> 859 ;
860 [label="X[18] <= 28.95\ngini = 0.444\nsamples = 6\nvalue = [4, 2]"] ;
859 -> 860 ;
861 [label="gini = 0.0\nsamples = 3\nvalue = [3, 0]"] ;
860 -> 861 ;
862 [label="X[3] <= 9.5\ngini = 0.444\nsamples = 3\nvalue = [1, 2]"] ;
860 -> 862 ;
863 [label="gini = 0.0\nsamples = 2\nvalue = [0, 2]"] ;
862 -> 863 ;
864 [label="gini = 0.0\nsamples = 1\nvalue = [1, 0]"] ;
862 -> 864 ;
865 [label="X[12] <= 15.5\ngini = 0.08\nsamples = 48\nvalue = [46, 2]"] ;
859 -> 865 ;
866 [label="X[17] <= 13.55\ngini = 0.278\nsamples = 6\nvalue = [5, 1]"] ;
865 -> 866 ;
867 [label="gini = 0.0\nsamples = 1\nvalue = [0, 1]"] ;
866 -> 867 ;
868 [label="gini = 0.0\nsamples = 5\nvalue = [5, 0]"] ;
866 -> 868 ;
869 [label="X[7] <= 146.25\ngini = 0.046\nsamples = 42\nvalue = [41, 1]"] ;
865 -> 869 ;
870 [label="gini = 0.0\nsamples = 33\nvalue = [33, 0]"] ;
869 -> 870 ;
871 [label="X[0] <= 8.7\ngini = 0.198\nsamples = 9\nvalue = [8, 1]"] ;
869 -> 871 ;
872 [label="X[18] <= 24.35\ngini = 0.5\nsamples = 2\nvalue = [1, 1]"] ;
871 -> 872 ;
873 [label="gini = 0.0\nsamples = 1\nvalue = [1, 0]"] ;
872 -> 873 ;
874 [label="gini = 0.0\nsamples = 1\nvalue = [0, 1]"] ;
872 -> 874 ;
875 [label="gini = 0.0\nsamples = 7\nvalue = [7, 0]"] ;
871 -> 875 ;
876 [label="X[9] <= 16.0\ngini = 0.375\nsamples = 8\nvalue = [6, 2]"] ;
854 -> 876 ;
877 [label="X[18] <= 25.7\ngini = 0.444\nsamples = 3\nvalue = [1, 2]"] ;
876 -> 877 ;
878 [label="gini = 0.0\nsamples = 1\nvalue = [1, 0]"] ;
877 -> 878 ;
879 [label="gini = 0.0\nsamples = 2\nvalue = [0, 2]"] ;
877 -> 879 ;
880 [label="gini = 0.0\nsamples = 5\nvalue = [5, 0]"] ;
876 -> 880 ;
881 [label="X[6] <= 38.0\ngini = 0.48\nsamples = 5\nvalue = [3, 2]"] ;
853 -> 881 ;
882 [label="gini = 0.0\nsamples = 2\nvalue = [0, 2]"] ;
881 -> 882 ;
883 [label="gini = 0.0\nsamples = 3\nvalue = [3, 0]"] ;
881 -> 883 ;
884 [label="X[14] <= 1007.45\ngini = 0.48\nsamples = 5\nvalue = [2, 3]"] ;
852 -> 884 ;
885 [label="gini = 0.0\nsamples = 3\nvalue = [0, 3]"] ;
884 -> 885 ;
886 [label="gini = 0.0\nsamples = 2\nvalue = [2, 0]"] ;
884 -> 886 ;
887 [label="gini = 0.0\nsamples = 55\nvalue = [55, 0]"] ;
851 -> 887 ;
888 [label="X[4] <= 6.5\ngini = 0.5\nsamples = 2\nvalue = [1, 1]"] ;
850 -> 888 ;
889 [label="gini = 0.0\nsamples = 1\nvalue = [0, 1]"] ;
888 -> 889 ;
890 [label="gini = 0.0\nsamples = 1\nvalue = [1, 0]"] ;
888 -> 890 ;
891 [label="X[17] <= 26.85\ngini = 0.32\nsamples = 25\nvalue = [20, 5]"] ;
845 -> 891 ;
892 [label="X[4] <= 8.8\ngini = 0.444\nsamples = 15\nvalue = [10, 5]"] ;
891 -> 892 ;
893 [label="X[10] <= 24.0\ngini = 0.198\nsamples = 9\nvalue = [8, 1]"] ;
892 -> 893 ;
894 [label="gini = 0.0\nsamples = 8\nvalue = [8, 0]"] ;
893 -> 894 ;
895 [label="gini = 0.0\nsamples = 1\nvalue = [0, 1]"] ;
893 -> 895 ;
896 [label="X[14] <= 1007.1\ngini = 0.444\nsamples = 6\nvalue = [2, 4]"] ;
892 -> 896 ;
897 [label="gini = 0.0\nsamples = 4\nvalue = [0, 4]"] ;
896 -> 897 ;
898 [label="gini = 0.0\nsamples = 2\nvalue = [2, 0]"] ;
896 -> 898 ;
899 [label="gini = 0.0\nsamples = 10\nvalue = [10, 0]"] ;
891 -> 899 ;
900 [label="gini = 0.0\nsamples = 1\nvalue = [0, 1]"] ;
844 -> 900 ;
901 [label="X[3] <= 5.3\ngini = 0.051\nsamples = 1910\nvalue = [1860, 50]"] ;
843 -> 901 ;
902 [label="X[3] <= 4.9\ngini = 0.072\nsamples = 1252\nvalue = [1205, 47]"] ;
901 -> 902 ;
903 [label="X[0] <= 28.85\ngini = 0.066\nsamples = 1233\nvalue = [1191, 42]"] ;
902 -> 903 ;
904 [label="X[13] <= 1005.2\ngini = 0.064\nsamples = 1232\nvalue = [1191, 41]"] ;
903 -> 904 ;
905 [label="X[11] <= 94.5\ngini = 0.035\nsamples = 775\nvalue = [761, 14]"] ;
904 -> 905 ;
906 [label="X[0] <= -1.45\ngini = 0.033\nsamples = 769\nvalue = [756, 13]"] ;
905 -> 906 ;
907 [label="X[17] <= 15.25\ngini = 0.245\nsamples = 7\nvalue = [6, 1]"] ;
906 -> 907 ;
908 [label="gini = 0.0\nsamples = 6\nvalue = [6, 0]"] ;
907 -> 908 ;
909 [label="gini = 0.0\nsamples = 1\nvalue = [0, 1]"] ;
907 -> 909 ;
910 [label="X[8] <= 326.25\ngini = 0.031\nsamples = 762\nvalue = [750, 12]"] ;
906 -> 910 ;
911 [label="X[10] <= 5.0\ngini = 0.025\nsamples = 716\nvalue = [707, 9]"] ;
910 -> 911 ;
912 [label="X[11] <= 71.0\ngini = 0.124\nsamples = 30\nvalue = [28, 2]"] ;
911 -> 912 ;
913 [label="gini = 0.0\nsamples = 23\nvalue = [23, 0]"] ;
912 -> 913 ;
914 [label="X[7] <= 56.25\ngini = 0.408\nsamples = 7\nvalue = [5, 2]"] ;
912 -> 914 ;
915 [label="X[18] <= 28.2\ngini = 0.444\nsamples = 3\nvalue = [1, 2]"] ;
914 -> 915 ;
916 [label="gini = 0.0\nsamples = 1\nvalue = [1, 0]"] ;
915 -> 916 ;
917 [label="gini = 0.0\nsamples = 2\nvalue = [0, 2]"] ;
915 -> 917 ;
918 [label="gini = 0.0\nsamples = 4\nvalue = [4, 0]"] ;
914 -> 918 ;
919 [label="X[9] <= 21.0\ngini = 0.02\nsamples = 686\nvalue = [679, 7]"] ;
911 -> 919 ;
920 [label="X[12] <= 9.5\ngini = 0.013\nsamples = 615\nvalue = [611, 4]"] ;
919 -> 920 ;
921 [label="X[0] <= 17.0\ngini = 0.245\nsamples = 7\nvalue = [6, 1]"] ;
920 -> 921 ;
922 [label="gini = 0.0\nsamples = 6\nvalue = [6, 0]"] ;
921 -> 922 ;
923 [label="gini = 0.0\nsamples = 1\nvalue = [0, 1]"] ;
921 -> 923 ;
924 [label="X[0] <= -0.15\ngini = 0.01\nsamples = 608\nvalue = [605, 3]"] ;
920 -> 924 ;
925 [label="X[0] <= -0.25\ngini = 0.091\nsamples = 21\nvalue = [20, 1]"] ;
924 -> 925 ;
926 [label="gini = 0.0\nsamples = 19\nvalue = [19, 0]"] ;
925 -> 926 ;
927 [label="X[1] <= 23.1\ngini = 0.5\nsamples = 2\nvalue = [1, 1]"] ;
925 -> 927 ;
928 [label="gini = 0.0\nsamples = 1\nvalue = [0, 1]"] ;
927 -> 928 ;
929 [label="gini = 0.0\nsamples = 1\nvalue = [1, 0]"] ;
927 -> 929 ;
930 [label="X[12] <= 27.5\ngini = 0.007\nsamples = 587\nvalue = [585, 2]"] ;
924 -> 930 ;
931 [label="gini = 0.0\nsamples = 426\nvalue = [426, 0]"] ;
930 -> 931 ;
932 [label="X[6] <= 42.0\ngini = 0.025\nsamples = 161\nvalue = [159, 2]"] ;
930 -> 932 ;
933 [label="X[0] <= 5.45\ngini = 0.013\nsamples = 151\nvalue = [150, 1]"] ;
932 -> 933 ;
934 [label="X[0] <= 5.2\ngini = 0.053\nsamples = 37\nvalue = [36, 1]"] ;
933 -> 934 ;
935 [label="gini = 0.0\nsamples = 35\nvalue = [35, 0]"] ;
934 -> 935 ;
936 [label="X[7] <= 191.25\ngini = 0.5\nsamples = 2\nvalue = [1, 1]"] ;
934 -> 936 ;
937 [label="gini = 0.0\nsamples = 1\nvalue = [0, 1]"] ;
936 -> 937 ;
938 [label="gini = 0.0\nsamples = 1\nvalue = [1, 0]"] ;
936 -> 938 ;
939 [label="gini = 0.0\nsamples = 114\nvalue = [114, 0]"] ;
933 -> 939 ;
940 [label="X[10] <= 14.0\ngini = 0.18\nsamples = 10\nvalue = [9, 1]"] ;
932 -> 940 ;
941 [label="gini = 0.0\nsamples = 1\nvalue = [0, 1]"] ;
940 -> 941 ;
942 [label="gini = 0.0\nsamples = 9\nvalue = [9, 0]"] ;
940 -> 942 ;
943 [label="X[8] <= 78.75\ngini = 0.081\nsamples = 71\nvalue = [68, 3]"] ;
919 -> 943 ;
944 [label="X[6] <= 40.0\ngini = 0.191\nsamples = 28\nvalue = [25, 3]"] ;
943 -> 944 ;
945 [label="X[1] <= 26.65\ngini = 0.375\nsamples = 12\nvalue = [9, 3]"] ;
944 -> 945 ;
946 [label="gini = 0.0\nsamples = 1\nvalue = [0, 1]"] ;
945 -> 946 ;
947 [label="X[7] <= 11.25\ngini = 0.298\nsamples = 11\nvalue = [9, 2]"] ;
945 -> 947 ;
948 [label="gini = 0.0\nsamples = 1\nvalue = [0, 1]"] ;
947 -> 948 ;
949 [label="X[9] <= 23.0\ngini = 0.18\nsamples = 10\nvalue = [9, 1]"] ;
947 -> 949 ;
950 [label="X[0] <= 13.15\ngini = 0.444\nsamples = 3\nvalue = [2, 1]"] ;
949 -> 950 ;
951 [label="gini = 0.0\nsamples = 2\nvalue = [2, 0]"] ;
950 -> 951 ;
952 [label="gini = 0.0\nsamples = 1\nvalue = [0, 1]"] ;
950 -> 952 ;
953 [label="gini = 0.0\nsamples = 7\nvalue = [7, 0]"] ;
949 -> 953 ;
954 [label="gini = 0.0\nsamples = 16\nvalue = [16, 0]"] ;
944 -> 954 ;
955 [label="gini = 0.0\nsamples = 43\nvalue = [43, 0]"] ;
943 -> 955 ;
956 [label="X[15] <= 3.5\ngini = 0.122\nsamples = 46\nvalue = [43, 3]"] ;
910 -> 956 ;
957 [label="X[9] <= 23.0\ngini = 0.085\nsamples = 45\nvalue = [43, 2]"] ;
956 -> 957 ;
958 [label="X[10] <= 20.5\ngini = 0.045\nsamples = 43\nvalue = [42, 1]"] ;
957 -> 958 ;
959 [label="gini = 0.0\nsamples = 39\nvalue = [39, 0]"] ;
958 -> 959 ;
960 [label="X[10] <= 23.0\ngini = 0.375\nsamples = 4\nvalue = [3, 1]"] ;
958 -> 960 ;
961 [label="gini = 0.0\nsamples = 1\nvalue = [0, 1]"] ;
960 -> 961 ;
962 [label="gini = 0.0\nsamples = 3\nvalue = [3, 0]"] ;
960 -> 962 ;
963 [label="X[17] <= 21.4\ngini = 0.5\nsamples = 2\nvalue = [1, 1]"] ;
957 -> 963 ;
964 [label="gini = 0.0\nsamples = 1\nvalue = [1, 0]"] ;
963 -> 964 ;
965 [label="gini = 0.0\nsamples = 1\nvalue = [0, 1]"] ;
963 -> 965 ;
966 [label="gini = 0.0\nsamples = 1\nvalue = [0, 1]"] ;
956 -> 966 ;
967 [label="X[0] <= 16.4\ngini = 0.278\nsamples = 6\nvalue = [5, 1]"] ;
905 -> 967 ;
968 [label="gini = 0.0\nsamples = 5\nvalue = [5, 0]"] ;
967 -> 968 ;
969 [label="gini = 0.0\nsamples = 1\nvalue = [0, 1]"] ;
967 -> 969 ;
970 [label="X[13] <= 1005.35\ngini = 0.111\nsamples = 457\nvalue = [430, 27]"] ;
904 -> 970 ;
971 [label="gini = 0.0\nsamples = 1\nvalue = [0, 1]"] ;
970 -> 971 ;
972 [label="X[14] <= 1007.55\ngini = 0.108\nsamples = 456\nvalue = [430, 26]"] ;
970 -> 972 ;
973 [label="X[0] <= 5.65\ngini = 0.162\nsamples = 248\nvalue = [226, 22]"] ;
972 -> 973 ;
974 [label="X[18] <= 24.6\ngini = 0.5\nsamples = 6\nvalue = [3, 3]"] ;
973 -> 974 ;
975 [label="gini = 0.0\nsamples = 3\nvalue = [0, 3]"] ;
974 -> 975 ;
976 [label="gini = 0.0\nsamples = 3\nvalue = [3, 0]"] ;
974 -> 976 ;
977 [label="X[13] <= 1010.95\ngini = 0.145\nsamples = 242\nvalue = [223, 19]"] ;
973 -> 977 ;
978 [label="X[6] <= 29.0\ngini = 0.101\nsamples = 187\nvalue = [177, 10]"] ;
977 -> 978 ;
979 [label="X[0] <= 20.75\ngini = 0.34\nsamples = 23\nvalue = [18, 5]"] ;
978 -> 979 ;
980 [label="X[9] <= 2.0\ngini = 0.18\nsamples = 20\nvalue = [18, 2]"] ;
979 -> 980 ;
981 [label="gini = 0.0\nsamples = 1\nvalue = [0, 1]"] ;
980 -> 981 ;
982 [label="X[4] <= 12.8\ngini = 0.1\nsamples = 19\nvalue = [18, 1]"] ;
980 -> 982 ;
983 [label="gini = 0.0\nsamples = 18\nvalue = [18, 0]"] ;
982 -> 983 ;
984 [label="gini = 0.0\nsamples = 1\nvalue = [0, 1]"] ;
982 -> 984 ;
985 [label="gini = 0.0\nsamples = 3\nvalue = [0, 3]"] ;
979 -> 985 ;
986 [label="X[15] <= 7.5\ngini = 0.059\nsamples = 164\nvalue = [159, 5]"] ;
978 -> 986 ;
987 [label="X[14] <= 1003.65\ngini = 0.048\nsamples = 162\nvalue = [158, 4]"] ;
986 -> 987 ;
988 [label="X[0] <= 25.6\ngini = 0.245\nsamples = 21\nvalue = [18, 3]"] ;
987 -> 988 ;
989 [label="X[12] <= 27.5\ngini = 0.18\nsamples = 20\nvalue = [18, 2]"] ;
988 -> 989 ;
990 [label="gini = 0.0\nsamples = 16\nvalue = [16, 0]"] ;
989 -> 990 ;
991 [label="X[7] <= 33.75\ngini = 0.5\nsamples = 4\nvalue = [2, 2]"] ;
989 -> 991 ;
992 [label="gini = 0.0\nsamples = 2\nvalue = [2, 0]"] ;
991 -> 992 ;
993 [label="gini = 0.0\nsamples = 2\nvalue = [0, 2]"] ;
991 -> 993 ;
994 [label="gini = 0.0\nsamples = 1\nvalue = [0, 1]"] ;
988 -> 994 ;
995 [label="X[11] <= 73.5\ngini = 0.014\nsamples = 141\nvalue = [140, 1]"] ;
987 -> 995 ;
996 [label="gini = 0.0\nsamples = 131\nvalue = [131, 0]"] ;
995 -> 996 ;
997 [label="X[11] <= 74.5\ngini = 0.18\nsamples = 10\nvalue = [9, 1]"] ;
995 -> 997 ;
998 [label="gini = 0.0\nsamples = 1\nvalue = [0, 1]"] ;
997 -> 998 ;
999 [label="gini = 0.0\nsamples = 9\nvalue = [9, 0]"] ;
997 -> 999 ;
1000 [label="X[1] <= 36.4\ngini = 0.5\nsamples = 2\nvalue = [1, 1]"] ;
986 -> 1000 ;
1001 [label="gini = 0.0\nsamples = 1\nvalue = [0, 1]"] ;
1000 -> 1001 ;
1002 [label="gini = 0.0\nsamples = 1\nvalue = [1, 0]"] ;
1000 -> 1002 ;
1003 [label="X[11] <= 55.5\ngini = 0.274\nsamples = 55\nvalue = [46, 9]"] ;
977 -> 1003 ;
1004 [label="X[0] <= 15.75\ngini = 0.389\nsamples = 34\nvalue = [25, 9]"] ;
1003 -> 1004 ;
1005 [label="X[13] <= 1012.15\ngini = 0.498\nsamples = 15\nvalue = [7, 8]"] ;
1004 -> 1005 ;
1006 [label="X[13] <= 1011.1\ngini = 0.32\nsamples = 10\nvalue = [2, 8]"] ;
1005 -> 1006 ;
1007 [label="X[12] <= 23.0\ngini = 0.444\nsamples = 3\nvalue = [2, 1]"] ;
1006 -> 1007 ;
1008 [label="gini = 0.0\nsamples = 2\nvalue = [2, 0]"] ;
1007 -> 1008 ;
1009 [label="gini = 0.0\nsamples = 1\nvalue = [0, 1]"] ;
1007 -> 1009 ;
1010 [label="gini = 0.0\nsamples = 7\nvalue = [0, 7]"] ;
1006 -> 1010 ;
1011 [label="gini = 0.0\nsamples = 5\nvalue = [5, 0]"] ;
1005 -> 1011 ;
1012 [label="X[7] <= 11.25\ngini = 0.1\nsamples = 19\nvalue = [18, 1]"] ;
1004 -> 1012 ;
1013 [label="gini = 0.0\nsamples = 1\nvalue = [0, 1]"] ;
1012 -> 1013 ;
1014 [label="gini = 0.0\nsamples = 18\nvalue = [18, 0]"] ;
1012 -> 1014 ;
1015 [label="gini = 0.0\nsamples = 21\nvalue = [21, 0]"] ;
1003 -> 1015 ;
1016 [label="X[10] <= 6.5\ngini = 0.038\nsamples = 208\nvalue = [204, 4]"] ;
972 -> 1016 ;
1017 [label="X[13] <= 1011.9\ngini = 0.375\nsamples = 8\nvalue = [6, 2]"] ;
1016 -> 1017 ;
1018 [label="gini = 0.0\nsamples = 2\nvalue = [0, 2]"] ;
1017 -> 1018 ;
1019 [label="gini = 0.0\nsamples = 6\nvalue = [6, 0]"] ;
1017 -> 1019 ;
1020 [label="X[13] <= 1010.05\ngini = 0.02\nsamples = 200\nvalue = [198, 2]"] ;
1016 -> 1020 ;
1021 [label="X[1] <= 36.3\ngini = 0.172\nsamples = 21\nvalue = [19, 2]"] ;
1020 -> 1021 ;
1022 [label="X[1] <= 34.25\ngini = 0.095\nsamples = 20\nvalue = [19, 1]"] ;
1021 -> 1022 ;
1023 [label="gini = 0.0\nsamples = 17\nvalue = [17, 0]"] ;
1022 -> 1023 ;
1024 [label="X[7] <= 180.0\ngini = 0.444\nsamples = 3\nvalue = [2, 1]"] ;
1022 -> 1024 ;
1025 [label="gini = 0.0\nsamples = 2\nvalue = [2, 0]"] ;
1024 -> 1025 ;
1026 [label="gini = 0.0\nsamples = 1\nvalue = [0, 1]"] ;
1024 -> 1026 ;
1027 [label="gini = 0.0\nsamples = 1\nvalue = [0, 1]"] ;
1021 -> 1027 ;
1028 [label="gini = 0.0\nsamples = 179\nvalue = [179, 0]"] ;
1020 -> 1028 ;
1029 [label="gini = 0.0\nsamples = 1\nvalue = [0, 1]"] ;
903 -> 1029 ;
1030 [label="X[0] <= 13.65\ngini = 0.388\nsamples = 19\nvalue = [14, 5]"] ;
902 -> 1030 ;
1031 [label="X[0] <= 10.1\ngini = 0.469\nsamples = 8\nvalue = [3, 5]"] ;
1030 -> 1031 ;
1032 [label="gini = 0.0\nsamples = 3\nvalue = [3, 0]"] ;
1031 -> 1032 ;
1033 [label="gini = 0.0\nsamples = 5\nvalue = [0, 5]"] ;
1031 -> 1033 ;
1034 [label="gini = 0.0\nsamples = 11\nvalue = [11, 0]"] ;
1030 -> 1034 ;
1035 [label="X[9] <= 29.0\ngini = 0.009\nsamples = 658\nvalue = [655, 3]"] ;
901 -> 1035 ;
1036 [label="X[11] <= 77.5\ngini = 0.006\nsamples = 652\nvalue = [650, 2]"] ;
1035 -> 1036 ;
1037 [label="X[14] <= 1002.75\ngini = 0.003\nsamples = 641\nvalue = [640, 1]"] ;
1036 -> 1037 ;
1038 [label="X[15] <= 5.5\ngini = 0.049\nsamples = 40\nvalue = [39, 1]"] ;
1037 -> 1038 ;
1039 [label="gini = 0.0\nsamples = 38\nvalue = [38, 0]"] ;
1038 -> 1039 ;
1040 [label="X[9] <= 12.0\ngini = 0.5\nsamples = 2\nvalue = [1, 1]"] ;
1038 -> 1040 ;
1041 [label="gini = 0.0\nsamples = 1\nvalue = [1, 0]"] ;
1040 -> 1041 ;
1042 [label="gini = 0.0\nsamples = 1\nvalue = [0, 1]"] ;
1040 -> 1042 ;
1043 [label="gini = 0.0\nsamples = 601\nvalue = [601, 0]"] ;
1037 -> 1043 ;
1044 [label="X[5] <= 11.25\ngini = 0.165\nsamples = 11\nvalue = [10, 1]"] ;
1036 -> 1044 ;
1045 [label="gini = 0.0\nsamples = 1\nvalue = [0, 1]"] ;
1044 -> 1045 ;
1046 [label="gini = 0.0\nsamples = 10\nvalue = [10, 0]"] ;
1044 -> 1046 ;
1047 [label="X[12] <= 24.0\ngini = 0.278\nsamples = 6\nvalue = [5, 1]"] ;
1035 -> 1047 ;
1048 [label="gini = 0.0\nsamples = 5\nvalue = [5, 0]"] ;
1047 -> 1048 ;
1049 [label="gini = 0.0\nsamples = 1\nvalue = [0, 1]"] ;
1047 -> 1049 ;
1050 [label="X[13] <= 1001.65\ngini = 0.114\nsamples = 2108\nvalue = [1980, 128]"] ;
842 -> 1050 ;
1051 [label="X[18] <= 31.35\ngini = 0.074\nsamples = 1326\nvalue = [1275, 51]"] ;
1050 -> 1051 ;
1052 [label="X[4] <= 11.7\ngini = 0.061\nsamples = 1242\nvalue = [1203, 39]"] ;
1051 -> 1052 ;
1053 [label="X[18] <= 5.45\ngini = 0.059\nsamples = 1241\nvalue = [1203, 38]"] ;
1052 -> 1053 ;
1054 [label="X[9] <= 13.0\ngini = 0.444\nsamples = 3\nvalue = [2, 1]"] ;
1053 -> 1054 ;
1055 [label="gini = 0.0\nsamples = 1\nvalue = [0, 1]"] ;
1054 -> 1055 ;
1056 [label="gini = 0.0\nsamples = 2\nvalue = [2, 0]"] ;
1054 -> 1056 ;
1057 [label="X[18] <= 28.35\ngini = 0.058\nsamples = 1238\nvalue = [1201, 37]"] ;
1053 -> 1057 ;
1058 [label="X[0] <= -3.45\ngini = 0.051\nsamples = 1112\nvalue = [1083, 29]"] ;
1057 -> 1058 ;
1059 [label="X[0] <= -3.7\ngini = 0.278\nsamples = 6\nvalue = [5, 1]"] ;
1058 -> 1059 ;
1060 [label="gini = 0.0\nsamples = 5\nvalue = [5, 0]"] ;
1059 -> 1060 ;
1061 [label="gini = 0.0\nsamples = 1\nvalue = [0, 1]"] ;
1059 -> 1061 ;
1062 [label="X[11] <= 58.5\ngini = 0.049\nsamples = 1106\nvalue = [1078, 28]"] ;
1058 -> 1062 ;
1063 [label="X[11] <= 54.5\ngini = 0.075\nsamples = 383\nvalue = [368, 15]"] ;
1062 -> 1063 ;
1064 [label="X[5] <= 101.25\ngini = 0.046\nsamples = 253\nvalue = [247, 6]"] ;
1063 -> 1064 ;
1065 [label="X[5] <= 78.75\ngini = 0.102\nsamples = 93\nvalue = [88, 5]"] ;
1064 -> 1065 ;
1066 [label="X[6] <= 32.0\ngini = 0.086\nsamples = 89\nvalue = [85, 4]"] ;
1065 -> 1066 ;
1067 [label="X[1] <= 18.4\ngini = 0.051\nsamples = 76\nvalue = [74, 2]"] ;
1066 -> 1067 ;
1068 [label="X[18] <= 16.55\ngini = 0.208\nsamples = 17\nvalue = [15, 2]"] ;
1067 -> 1068 ;
1069 [label="gini = 0.0\nsamples = 12\nvalue = [12, 0]"] ;
1068 -> 1069 ;
1070 [label="X[0] <= 8.6\ngini = 0.48\nsamples = 5\nvalue = [3, 2]"] ;
1068 -> 1070 ;
1071 [label="gini = 0.0\nsamples = 2\nvalue = [0, 2]"] ;
1070 -> 1071 ;
1072 [label="gini = 0.0\nsamples = 3\nvalue = [3, 0]"] ;
1070 -> 1072 ;
1073 [label="gini = 0.0\nsamples = 59\nvalue = [59, 0]"] ;
1067 -> 1073 ;
1074 [label="X[1] <= 28.05\ngini = 0.26\nsamples = 13\nvalue = [11, 2]"] ;
1066 -> 1074 ;
1075 [label="X[9] <= 5.0\ngini = 0.153\nsamples = 12\nvalue = [11, 1]"] ;
1074 -> 1075 ;
1076 [label="X[17] <= 17.1\ngini = 0.5\nsamples = 2\nvalue = [1, 1]"] ;
1075 -> 1076 ;
1077 [label="gini = 0.0\nsamples = 1\nvalue = [0, 1]"] ;
1076 -> 1077 ;
1078 [label="gini = 0.0\nsamples = 1\nvalue = [1, 0]"] ;
1076 -> 1078 ;
1079 [label="gini = 0.0\nsamples = 10\nvalue = [10, 0]"] ;
1075 -> 1079 ;
1080 [label="gini = 0.0\nsamples = 1\nvalue = [0, 1]"] ;
1074 -> 1080 ;
1081 [label="X[6] <= 28.0\ngini = 0.375\nsamples = 4\nvalue = [3, 1]"] ;
1065 -> 1081 ;
1082 [label="gini = 0.0\nsamples = 1\nvalue = [0, 1]"] ;
1081 -> 1082 ;
1083 [label="gini = 0.0\nsamples = 3\nvalue = [3, 0]"] ;
1081 -> 1083 ;
1084 [label="X[7] <= 303.75\ngini = 0.012\nsamples = 160\nvalue = [159, 1]"] ;
1064 -> 1084 ;
1085 [label="gini = 0.0\nsamples = 145\nvalue = [145, 0]"] ;
1084 -> 1085 ;
1086 [label="X[18] <= 19.5\ngini = 0.124\nsamples = 15\nvalue = [14, 1]"] ;
1084 -> 1086 ;
1087 [label="X[9] <= 15.0\ngini = 0.375\nsamples = 4\nvalue = [3, 1]"] ;
1086 -> 1087 ;
1088 [label="gini = 0.0\nsamples = 3\nvalue = [3, 0]"] ;
1087 -> 1088 ;
1089 [label="gini = 0.0\nsamples = 1\nvalue = [0, 1]"] ;
1087 -> 1089 ;
1090 [label="gini = 0.0\nsamples = 11\nvalue = [11, 0]"] ;
1086 -> 1090 ;
1091 [label="X[5] <= 303.75\ngini = 0.129\nsamples = 130\nvalue = [121, 9]"] ;
1063 -> 1091 ;
1092 [label="X[7] <= 326.25\ngini = 0.095\nsamples = 120\nvalue = [114, 6]"] ;
1091 -> 1092 ;
1093 [label="X[3] <= 4.3\ngini = 0.068\nsamples = 114\nvalue = [110, 4]"] ;
1092 -> 1093 ;
1094 [label="X[18] <= 14.65\ngini = 0.052\nsamples = 112\nvalue = [109, 3]"] ;
1093 -> 1094 ;
1095 [label="X[9] <= 7.5\ngini = 0.375\nsamples = 4\nvalue = [3, 1]"] ;
1094 -> 1095 ;
1096 [label="gini = 0.0\nsamples = 3\nvalue = [3, 0]"] ;
1095 -> 1096 ;
1097 [label="gini = 0.0\nsamples = 1\nvalue = [0, 1]"] ;
1095 -> 1097 ;
1098 [label="X[17] <= 16.95\ngini = 0.036\nsamples = 108\nvalue = [106, 2]"] ;
1094 -> 1098 ;
1099 [label="gini = 0.0\nsamples = 67\nvalue = [67, 0]"] ;
1098 -> 1099 ;
1100 [label="X[17] <= 17.05\ngini = 0.093\nsamples = 41\nvalue = [39, 2]"] ;
1098 -> 1100 ;
1101 [label="gini = 0.0\nsamples = 2\nvalue = [0, 2]"] ;
1100 -> 1101 ;
1102 [label="gini = 0.0\nsamples = 39\nvalue = [39, 0]"] ;
1100 -> 1102 ;
1103 [label="X[12] <= 35.5\ngini = 0.5\nsamples = 2\nvalue = [1, 1]"] ;
1093 -> 1103 ;
1104 [label="gini = 0.0\nsamples = 1\nvalue = [0, 1]"] ;
1103 -> 1104 ;
1105 [label="gini = 0.0\nsamples = 1\nvalue = [1, 0]"] ;
1103 -> 1105 ;
1106 [label="X[1] <= 20.55\ngini = 0.444\nsamples = 6\nvalue = [4, 2]"] ;
1092 -> 1106 ;
1107 [label="X[12] <= 33.5\ngini = 0.444\nsamples = 3\nvalue = [1, 2]"] ;
1106 -> 1107 ;
1108 [label="gini = 0.0\nsamples = 1\nvalue = [1, 0]"] ;
1107 -> 1108 ;
1109 [label="gini = 0.0\nsamples = 2\nvalue = [0, 2]"] ;
1107 -> 1109 ;
1110 [label="gini = 0.0\nsamples = 3\nvalue = [3, 0]"] ;
1106 -> 1110 ;
1111 [label="X[17] <= 17.65\ngini = 0.42\nsamples = 10\nvalue = [7, 3]"] ;
1091 -> 1111 ;
1112 [label="gini = 0.0\nsamples = 7\nvalue = [7, 0]"] ;
1111 -> 1112 ;
1113 [label="gini = 0.0\nsamples = 3\nvalue = [0, 3]"] ;
1111 -> 1113 ;
1114 [label="X[11] <= 67.5\ngini = 0.035\nsamples = 723\nvalue = [710, 13]"] ;
1062 -> 1114 ;
1115 [label="X[5] <= 303.75\ngini = 0.008\nsamples = 255\nvalue = [254, 1]"] ;
1114 -> 1115 ;
1116 [label="gini = 0.0\nsamples = 228\nvalue = [228, 0]"] ;
1115 -> 1116 ;
1117 [label="X[12] <= 39.5\ngini = 0.071\nsamples = 27\nvalue = [26, 1]"] ;
1115 -> 1117 ;
1118 [label="gini = 0.0\nsamples = 24\nvalue = [24, 0]"] ;
1117 -> 1118 ;
1119 [label="X[0] <= 8.25\ngini = 0.444\nsamples = 3\nvalue = [2, 1]"] ;
1117 -> 1119 ;
1120 [label="gini = 0.0\nsamples = 1\nvalue = [0, 1]"] ;
1119 -> 1120 ;
1121 [label="gini = 0.0\nsamples = 2\nvalue = [2, 0]"] ;
1119 -> 1121 ;
1122 [label="X[0] <= 3.15\ngini = 0.05\nsamples = 468\nvalue = [456, 12]"] ;
1114 -> 1122 ;
1123 [label="gini = 0.0\nsamples = 113\nvalue = [113, 0]"] ;
1122 -> 1123 ;
1124 [label="X[0] <= 5.75\ngini = 0.065\nsamples = 355\nvalue = [343, 12]"] ;
1122 -> 1124 ;
1125 [label="X[6] <= 42.0\ngini = 0.141\nsamples = 92\nvalue = [85, 7]"] ;
1124 -> 1125 ;
1126 [label="X[11] <= 77.5\ngini = 0.124\nsamples = 90\nvalue = [84, 6]"] ;
1125 -> 1126 ;
1127 [label="gini = 0.0\nsamples = 37\nvalue = [37, 0]"] ;
1126 -> 1127 ;
1128 [label="X[9] <= 10.0\ngini = 0.201\nsamples = 53\nvalue = [47, 6]"] ;
1126 -> 1128 ;
1129 [label="X[2] <= 0.9\ngini = 0.147\nsamples = 50\nvalue = [46, 4]"] ;
1128 -> 1129 ;
1130 [label="X[8] <= 56.25\ngini = 0.117\nsamples = 48\nvalue = [45, 3]"] ;
1129 -> 1130 ;
1131 [label="X[7] <= 225.0\ngini = 0.255\nsamples = 20\nvalue = [17, 3]"] ;
1130 -> 1131 ;
1132 [label="X[1] <= 19.35\ngini = 0.111\nsamples = 17\nvalue = [16, 1]"] ;
1131 -> 1132 ;
1133 [label="X[1] <= 18.55\ngini = 0.444\nsamples = 3\nvalue = [2, 1]"] ;
1132 -> 1133 ;
1134 [label="gini = 0.0\nsamples = 2\nvalue = [2, 0]"] ;
1133 -> 1134 ;
1135 [label="gini = 0.0\nsamples = 1\nvalue = [0, 1]"] ;
1133 -> 1135 ;
1136 [label="gini = 0.0\nsamples = 14\nvalue = [14, 0]"] ;
1132 -> 1136 ;
1137 [label="X[11] <= 99.5\ngini = 0.444\nsamples = 3\nvalue = [1, 2]"] ;
1131 -> 1137 ;
1138 [label="gini = 0.0\nsamples = 2\nvalue = [0, 2]"] ;
1137 -> 1138 ;
1139 [label="gini = 0.0\nsamples = 1\nvalue = [1, 0]"] ;
1137 -> 1139 ;
1140 [label="gini = 0.0\nsamples = 28\nvalue = [28, 0]"] ;
1130 -> 1140 ;
1141 [label="X[9] <= 1.0\ngini = 0.5\nsamples = 2\nvalue = [1, 1]"] ;
1129 -> 1141 ;
1142 [label="gini = 0.0\nsamples = 1\nvalue = [1, 0]"] ;
1141 -> 1142 ;
1143 [label="gini = 0.0\nsamples = 1\nvalue = [0, 1]"] ;
1141 -> 1143 ;
1144 [label="X[5] <= 22.5\ngini = 0.444\nsamples = 3\nvalue = [1, 2]"] ;
1128 -> 1144 ;
1145 [label="gini = 0.0\nsamples = 1\nvalue = [1, 0]"] ;
1144 -> 1145 ;
1146 [label="gini = 0.0\nsamples = 2\nvalue = [0, 2]"] ;
1144 -> 1146 ;
1147 [label="X[0] <= 4.25\ngini = 0.5\nsamples = 2\nvalue = [1, 1]"] ;
1125 -> 1147 ;
1148 [label="gini = 0.0\nsamples = 1\nvalue = [1, 0]"] ;
1147 -> 1148 ;
1149 [label="gini = 0.0\nsamples = 1\nvalue = [0, 1]"] ;
1147 -> 1149 ;
1150 [label="X[5] <= 101.25\ngini = 0.037\nsamples = 263\nvalue = [258, 5]"] ;
1124 -> 1150 ;
1151 [label="gini = 0.0\nsamples = 110\nvalue = [110, 0]"] ;
1150 -> 1151 ;
1152 [label="X[5] <= 123.75\ngini = 0.063\nsamples = 153\nvalue = [148, 5]"] ;
1150 -> 1152 ;
1153 [label="X[11] <= 79.5\ngini = 0.305\nsamples = 16\nvalue = [13, 3]"] ;
1152 -> 1153 ;
1154 [label="X[10] <= 15.0\ngini = 0.142\nsamples = 13\nvalue = [12, 1]"] ;
1153 -> 1154 ;
1155 [label="gini = 0.0\nsamples = 10\nvalue = [10, 0]"] ;
1154 -> 1155 ;
1156 [label="X[8] <= 123.75\ngini = 0.444\nsamples = 3\nvalue = [2, 1]"] ;
1154 -> 1156 ;
1157 [label="gini = 0.0\nsamples = 1\nvalue = [0, 1]"] ;
1156 -> 1157 ;
1158 [label="gini = 0.0\nsamples = 2\nvalue = [2, 0]"] ;
1156 -> 1158 ;
1159 [label="X[12] <= 34.5\ngini = 0.444\nsamples = 3\nvalue = [1, 2]"] ;
1153 -> 1159 ;
1160 [label="gini = 0.0\nsamples = 1\nvalue = [1, 0]"] ;
1159 -> 1160 ;
1161 [label="gini = 0.0\nsamples = 2\nvalue = [0, 2]"] ;
1159 -> 1161 ;
1162 [label="X[11] <= 73.5\ngini = 0.029\nsamples = 137\nvalue = [135, 2]"] ;
1152 -> 1162 ;
1163 [label="X[6] <= 24.0\ngini = 0.093\nsamples = 41\nvalue = [39, 2]"] ;
1162 -> 1163 ;
1164 [label="X[9] <= 8.5\ngini = 0.5\nsamples = 2\nvalue = [1, 1]"] ;
1163 -> 1164 ;
1165 [label="gini = 0.0\nsamples = 1\nvalue = [0, 1]"] ;
1164 -> 1165 ;
1166 [label="gini = 0.0\nsamples = 1\nvalue = [1, 0]"] ;
1164 -> 1166 ;
1167 [label="X[9] <= 3.0\ngini = 0.05\nsamples = 39\nvalue = [38, 1]"] ;
1163 -> 1167 ;
1168 [label="X[11] <= 72.0\ngini = 0.278\nsamples = 6\nvalue = [5, 1]"] ;
1167 -> 1168 ;
1169 [label="gini = 0.0\nsamples = 5\nvalue = [5, 0]"] ;
1168 -> 1169 ;
1170 [label="gini = 0.0\nsamples = 1\nvalue = [0, 1]"] ;
1168 -> 1170 ;
1171 [label="gini = 0.0\nsamples = 33\nvalue = [33, 0]"] ;
1167 -> 1171 ;
1172 [label="gini = 0.0\nsamples = 96\nvalue = [96, 0]"] ;
1162 -> 1172 ;
1173 [label="X[8] <= 303.75\ngini = 0.119\nsamples = 126\nvalue = [118, 8]"] ;
1057 -> 1173 ;
1174 [label="X[11] <= 65.5\ngini = 0.054\nsamples = 109\nvalue = [106, 3]"] ;
1173 -> 1174 ;
1175 [label="X[11] <= 64.5\ngini = 0.136\nsamples = 41\nvalue = [38, 3]"] ;
1174 -> 1175 ;
1176 [label="X[17] <= 20.0\ngini = 0.057\nsamples = 34\nvalue = [33, 1]"] ;
1175 -> 1176 ;
1177 [label="X[7] <= 202.5\ngini = 0.375\nsamples = 4\nvalue = [3, 1]"] ;
1176 -> 1177 ;
1178 [label="gini = 0.0\nsamples = 3\nvalue = [3, 0]"] ;
1177 -> 1178 ;
1179 [label="gini = 0.0\nsamples = 1\nvalue = [0, 1]"] ;
1177 -> 1179 ;
1180 [label="gini = 0.0\nsamples = 30\nvalue = [30, 0]"] ;
1176 -> 1180 ;
1181 [label="X[6] <= 13.0\ngini = 0.408\nsamples = 7\nvalue = [5, 2]"] ;
1175 -> 1181 ;
1182 [label="gini = 0.0\nsamples = 2\nvalue = [0, 2]"] ;
1181 -> 1182 ;
1183 [label="gini = 0.0\nsamples = 5\nvalue = [5, 0]"] ;
1181 -> 1183 ;
1184 [label="gini = 0.0\nsamples = 68\nvalue = [68, 0]"] ;
1174 -> 1184 ;
1185 [label="X[18] <= 29.1\ngini = 0.415\nsamples = 17\nvalue = [12, 5]"] ;
1173 -> 1185 ;
1186 [label="X[10] <= 21.5\ngini = 0.32\nsamples = 5\nvalue = [1, 4]"] ;
1185 -> 1186 ;
1187 [label="gini = 0.0\nsamples = 4\nvalue = [0, 4]"] ;
1186 -> 1187 ;
1188 [label="gini = 0.0\nsamples = 1\nvalue = [1, 0]"] ;
1186 -> 1188 ;
1189 [label="X[2] <= 11.0\ngini = 0.153\nsamples = 12\nvalue = [11, 1]"] ;
1185 -> 1189 ;
1190 [label="gini = 0.0\nsamples = 11\nvalue = [11, 0]"] ;
1189 -> 1190 ;
1191 [label="gini = 0.0\nsamples = 1\nvalue = [0, 1]"] ;
1189 -> 1191 ;
1192 [label="gini = 0.0\nsamples = 1\nvalue = [0, 1]"] ;
1052 -> 1192 ;
1193 [label="X[5] <= 191.25\ngini = 0.245\nsamples = 84\nvalue = [72, 12]"] ;
1051 -> 1193 ;
1194 [label="X[12] <= 40.5\ngini = 0.134\nsamples = 69\nvalue = [64, 5]"] ;
1193 -> 1194 ;
1195 [label="X[16] <= 3.5\ngini = 0.061\nsamples = 64\nvalue = [62, 2]"] ;
1194 -> 1195 ;
1196 [label="X[17] <= 27.45\ngini = 0.032\nsamples = 62\nvalue = [61, 1]"] ;
1195 -> 1196 ;
1197 [label="gini = 0.0\nsamples = 59\nvalue = [59, 0]"] ;
1196 -> 1197 ;
1198 [label="X[5] <= 168.75\ngini = 0.444\nsamples = 3\nvalue = [2, 1]"] ;
1196 -> 1198 ;
1199 [label="gini = 0.0\nsamples = 2\nvalue = [2, 0]"] ;
1198 -> 1199 ;
1200 [label="gini = 0.0\nsamples = 1\nvalue = [0, 1]"] ;
1198 -> 1200 ;
1201 [label="X[1] <= 33.95\ngini = 0.5\nsamples = 2\nvalue = [1, 1]"] ;
1195 -> 1201 ;
1202 [label="gini = 0.0\nsamples = 1\nvalue = [0, 1]"] ;
1201 -> 1202 ;
1203 [label="gini = 0.0\nsamples = 1\nvalue = [1, 0]"] ;
1201 -> 1203 ;
1204 [label="X[7] <= 45.0\ngini = 0.48\nsamples = 5\nvalue = [2, 3]"] ;
1194 -> 1204 ;
1205 [label="gini = 0.0\nsamples = 3\nvalue = [0, 3]"] ;
1204 -> 1205 ;
1206 [label="gini = 0.0\nsamples = 2\nvalue = [2, 0]"] ;
1204 -> 1206 ;
1207 [label="X[12] <= 33.5\ngini = 0.498\nsamples = 15\nvalue = [8, 7]"] ;
1193 -> 1207 ;
1208 [label="gini = 0.0\nsamples = 5\nvalue = [0, 5]"] ;
1207 -> 1208 ;
1209 [label="X[7] <= 315.0\ngini = 0.32\nsamples = 10\nvalue = [8, 2]"] ;
1207 -> 1209 ;
1210 [label="X[11] <= 98.5\ngini = 0.198\nsamples = 9\nvalue = [8, 1]"] ;
1209 -> 1210 ;
1211 [label="gini = 0.0\nsamples = 8\nvalue = [8, 0]"] ;
1210 -> 1211 ;
1212 [label="gini = 0.0\nsamples = 1\nvalue = [0, 1]"] ;
1210 -> 1212 ;
1213 [label="gini = 0.0\nsamples = 1\nvalue = [0, 1]"] ;
1209 -> 1213 ;
1214 [label="X[14] <= 1000.3\ngini = 0.178\nsamples = 782\nvalue = [705, 77]"] ;
1050 -> 1214 ;
1215 [label="X[2] <= 0.05\ngini = 0.42\nsamples = 10\nvalue = [3, 7]"] ;
1214 -> 1215 ;
1216 [label="gini = 0.0\nsamples = 6\nvalue = [0, 6]"] ;
1215 -> 1216 ;
1217 [label="X[15] <= 6.5\ngini = 0.375\nsamples = 4\nvalue = [3, 1]"] ;
1215 -> 1217 ;
1218 [label="gini = 0.0\nsamples = 3\nvalue = [3, 0]"] ;
1217 -> 1218 ;
1219 [label="gini = 0.0\nsamples = 1\nvalue = [0, 1]"] ;
1217 -> 1219 ;
1220 [label="X[16] <= 0.5\ngini = 0.165\nsamples = 772\nvalue = [702, 70]"] ;
1214 -> 1220 ;
1221 [label="X[9] <= 26.0\ngini = 0.232\nsamples = 365\nvalue = [316, 49]"] ;
1220 -> 1221 ;
1222 [label="X[18] <= 34.9\ngini = 0.225\nsamples = 363\nvalue = [316, 47]"] ;
1221 -> 1222 ;
1223 [label="X[10] <= 2.0\ngini = 0.206\nsamples = 343\nvalue = [303, 40]"] ;
1222 -> 1223 ;
1224 [label="gini = 0.0\nsamples = 1\nvalue = [0, 1]"] ;
1223 -> 1224 ;
1225 [label="X[11] <= 26.5\ngini = 0.202\nsamples = 342\nvalue = [303, 39]"] ;
1223 -> 1225 ;
1226 [label="gini = 0.0\nsamples = 1\nvalue = [0, 1]"] ;
1225 -> 1226 ;
1227 [label="X[17] <= 19.65\ngini = 0.198\nsamples = 341\nvalue = [303, 38]"] ;
1225 -> 1227 ;
1228 [label="X[13] <= 1010.0\ngini = 0.265\nsamples = 178\nvalue = [150, 28]"] ;
1227 -> 1228 ;
1229 [label="X[5] <= 303.75\ngini = 0.138\nsamples = 94\nvalue = [87, 7]"] ;
1228 -> 1229 ;
1230 [label="X[17] <= 19.25\ngini = 0.029\nsamples = 68\nvalue = [67, 1]"] ;
1229 -> 1230 ;
1231 [label="gini = 0.0\nsamples = 65\nvalue = [65, 0]"] ;
1230 -> 1231 ;
1232 [label="X[13] <= 1009.25\ngini = 0.444\nsamples = 3\nvalue = [2, 1]"] ;
1230 -> 1232 ;
1233 [label="gini = 0.0\nsamples = 2\nvalue = [2, 0]"] ;
1232 -> 1233 ;
1234 [label="gini = 0.0\nsamples = 1\nvalue = [0, 1]"] ;
1232 -> 1234 ;
1235 [label="X[4] <= 0.7\ngini = 0.355\nsamples = 26\nvalue = [20, 6]"] ;
1229 -> 1235 ;
1236 [label="X[11] <= 94.0\ngini = 0.165\nsamples = 22\nvalue = [20, 2]"] ;
1235 -> 1236 ;
1237 [label="X[12] <= 41.5\ngini = 0.091\nsamples = 21\nvalue = [20, 1]"] ;
1236 -> 1237 ;
1238 [label="gini = 0.0\nsamples = 20\nvalue = [20, 0]"] ;
1237 -> 1238 ;
1239 [label="gini = 0.0\nsamples = 1\nvalue = [0, 1]"] ;
1237 -> 1239 ;
1240 [label="gini = 0.0\nsamples = 1\nvalue = [0, 1]"] ;
1236 -> 1240 ;
1241 [label="gini = 0.0\nsamples = 4\nvalue = [0, 4]"] ;
1235 -> 1241 ;
1242 [label="X[14] <= 1007.85\ngini = 0.375\nsamples = 84\nvalue = [63, 21]"] ;
1228 -> 1242 ;
1243 [label="X[0] <= 8.75\ngini = 0.478\nsamples = 38\nvalue = [23, 15]"] ;
1242 -> 1243 ;
1244 [label="X[6] <= 30.5\ngini = 0.346\nsamples = 9\nvalue = [2, 7]"] ;
1243 -> 1244 ;
1245 [label="X[13] <= 1012.05\ngini = 0.444\nsamples = 3\nvalue = [2, 1]"] ;
1244 -> 1245 ;
1246 [label="gini = 0.0\nsamples = 1\nvalue = [0, 1]"] ;
1245 -> 1246 ;
1247 [label="gini = 0.0\nsamples = 2\nvalue = [2, 0]"] ;
1245 -> 1247 ;
1248 [label="gini = 0.0\nsamples = 6\nvalue = [0, 6]"] ;
1244 -> 1248 ;
1249 [label="X[10] <= 12.0\ngini = 0.4\nsamples = 29\nvalue = [21, 8]"] ;
1243 -> 1249 ;
1250 [label="X[5] <= 281.25\ngini = 0.496\nsamples = 11\nvalue = [5, 6]"] ;
1249 -> 1250 ;
1251 [label="X[7] <= 22.5\ngini = 0.245\nsamples = 7\nvalue = [1, 6]"] ;
1250 -> 1251 ;
1252 [label="gini = 0.0\nsamples = 1\nvalue = [1, 0]"] ;
1251 -> 1252 ;
1253 [label="gini = 0.0\nsamples = 6\nvalue = [0, 6]"] ;
1251 -> 1253 ;
1254 [label="gini = 0.0\nsamples = 4\nvalue = [4, 0]"] ;
1250 -> 1254 ;
1255 [label="X[0] <= 15.8\ngini = 0.198\nsamples = 18\nvalue = [16, 2]"] ;
1249 -> 1255 ;
1256 [label="X[12] <= 32.5\ngini = 0.111\nsamples = 17\nvalue = [16, 1]"] ;
1255 -> 1256 ;
1257 [label="X[6] <= 37.0\ngini = 0.375\nsamples = 4\nvalue = [3, 1]"] ;
1256 -> 1257 ;
1258 [label="gini = 0.0\nsamples = 3\nvalue = [3, 0]"] ;
1257 -> 1258 ;
1259 [label="gini = 0.0\nsamples = 1\nvalue = [0, 1]"] ;
1257 -> 1259 ;
1260 [label="gini = 0.0\nsamples = 13\nvalue = [13, 0]"] ;
1256 -> 1260 ;
1261 [label="gini = 0.0\nsamples = 1\nvalue = [0, 1]"] ;
1255 -> 1261 ;
1262 [label="X[0] <= 15.7\ngini = 0.227\nsamples = 46\nvalue = [40, 6]"] ;
1242 -> 1262 ;
1263 [label="X[13] <= 1013.55\ngini = 0.136\nsamples = 41\nvalue = [38, 3]"] ;
1262 -> 1263 ;
1264 [label="X[12] <= 31.5\ngini = 0.095\nsamples = 40\nvalue = [38, 2]"] ;
1263 -> 1264 ;
1265 [label="X[8] <= 168.75\ngini = 0.5\nsamples = 2\nvalue = [1, 1]"] ;
1264 -> 1265 ;
